{"learner":{"attributes":{"best_iteration":"6","best_score":"0.757073026218338","scikit_learn":"{\"_estimator_type\": \"classifier\"}"},"feature_names":[],"feature_types":[],"gradient_booster":{"model":{"gbtree_model_param":{"num_parallel_tree":"1","num_trees":"27"},"iteration_indptr":[0,1,2,3,4,5,6,7,8,9,10,11,12,13,14,15,16,17,18,19,20,21,22,23,24,25,26,27],"tree_info":[0,0,0,0,0,0,0,0,0,0,0,0,0,0,0,0,0,0,0,0,0,0,0,0,0,0,0],"trees":[{"base_weights":[5.1244773E-4,8.562632E-1,-6.6386425E-1,-1.8578511E-1,9.887399E-1,-1.066852E0,-3.1702957E-1,-1.1154635E0,5.9836066E-1,1.0475045E0,2.6954259E-3,-1.2217208E0,4.123233E-1,8.644733E-1,-4.783134E-1,-1.6190477E-1,6.172507E-2,1.227555E0,-4.5258963E-1,-1E-1,1.0808511E0,-7.8396994E-1,1.2955716E-1,-7.821201E-1,-1.7766147E0,8.192355E-1,-1E-1,1.4299999E-1,-4.5258963E-1,-6.072129E-1,1.227555E0,1.4679115E-1,3.468278E-2,-1.20000005E-1,6.172507E-2,4.589862E-2,1.1806697E-1,6.172507E-2,-1.4285715E-1,-2.1506269E-2,-1.2860918E-1,1.2705368E-2,-1.9157895E-1,-2.0848708E-2,1.4679115E-1,-1.20000005E-1,6.172507E-2,-1.6779644E-2,-1.03618346E-1,1.4679115E-1,3.468278E-2],"categories":[],"categories_nodes":[],"categories_segments":[],"categories_sizes":[],"default_left":[0,0,0,0,0,0,0,0,0,0,0,0,0,0,0,0,0,0,0,0,0,0,0,0,0,0,0,0,0,0,0,0,0,0,0,0,0,0,0,0,0,0,0,0,0,0,0,0,0,0,0],"id":0,"left_children":[1,3,5,7,9,11,13,15,17,19,21,23,25,27,29,-1,-1,31,33,-1,35,37,-1,39,41,43,-1,-1,45,47,49,-1,-1,-1,-1,-1,-1,-1,-1,-1,-1,-1,-1,-1,-1,-1,-1,-1,-1,-1,-1],"loss_changes":[1.4330878E2,1.5391693E1,1.9495033E1,1.0339534E1,5.669792E0,1.54427185E1,1.5217061E1,6.6008835E0,5.7450533E0,7.388916E0,7.6355066E0,1.3071991E1,4.800907E0,7.862513E0,1.5917178E1,0E0,0E0,5.870862E-1,3.674941E0,0E0,5.1309357E0,5.099496E0,0E0,9.687302E0,6.978134E0,4.258236E0,0E0,0E0,3.674941E0,1.2044521E1,5.870862E-1,0E0,0E0,0E0,0E0,0E0,0E0,0E0,0E0,0E0,0E0,0E0,0E0,0E0,0E0,0E0,0E0,0E0,0E0,0E0,0E0],"parents":[2147483647,0,0,1,1,2,2,3,3,4,4,5,5,6,6,7,7,8,8,9,9,10,10,11,11,12,12,13,13,14,14,17,17,18,18,20,20,21,21,23,23,24,24,25,25,28,28,29,29,30,30],"right_children":[2,4,6,8,10,12,14,16,18,20,22,24,26,28,30,-1,-1,32,34,-1,36,38,-1,40,42,44,-1,-1,46,48,50,-1,-1,-1,-1,-1,-1,-1,-1,-1,-1,-1,-1,-1,-1,-1,-1,-1,-1,-1,-1],"split_conditions":[8E0,1.56E2,1.86E2,2.12E2,1E1,8.4E-1,5.1E1,3E1,2E0,9E0,7.8E-1,8.9E1,1.270723E4,1.9E1,1.94E2,-1.6190477E-1,6.172507E-2,5E0,1.3E1,-1E-1,3.62359E3,6E0,1.2955716E-1,6.62795E3,2.2E1,4.38688E3,-1E-1,1.4299999E-1,2.9E1,4.4E-1,2E0,1.4679115E-1,3.468278E-2,-1.20000005E-1,6.172507E-2,4.589862E-2,1.1806697E-1,6.172507E-2,-1.4285715E-1,-2.1506269E-2,-1.2860918E-1,1.2705368E-2,-1.9157895E-1,-2.0848708E-2,1.4679115E-1,-1.20000005E-1,6.172507E-2,-1.6779644E-2,-1.03618346E-1,1.4679115E-1,3.468278E-2],"split_indices":[9,5,11,11,14,12,5,6,14,11,12,11,7,6,9,0,0,3,3,0,7,6,0,7,5,7,0,0,6,12,4,0,0,0,0,0,0,0,0,0,0,0,0,0,0,0,0,0,0,0,0],"split_type":[0,0,0,0,0,0,0,0,0,0,0,0,0,0,0,0,0,0,0,0,0,0,0,0,0,0,0,0,0,0,0,0,0,0,0,0,0,0,0,0,0,0,0,0,0,0,0,0,0,0,0],"sum_hessian":[2.5006433E2,1.0916521E2,1.4089912E2,1.2267544E1,9.689766E1,6.421345E1,7.668568E1,5.4195905E0,6.8479533E0,9.138889E1,5.508772E0,5.8285088E1,5.928363E0,8.687135E0,6.7998535E1,4.25E0,1.1695907E0,4.178363E0,2.6695907E0,1E0,9.038889E1,3.6695907E0,1.8391813E0,3.3865498E1,2.441959E1,4.928363E0,1E0,6.017544E0,2.6695907E0,6.3820175E1,4.178363E0,2.758772E0,1.4195907E0,1.5E0,1.1695907E0,1.3276316E1,7.711257E1,1.1695907E0,2.5E0,1.6606726E1,1.7258772E1,1.6695907E0,2.275E1,2.1695907E0,2.758772E0,1.5E0,1.1695907E0,3.221345E1,3.1606726E1,2.758772E0,1.4195907E0],"tree_param":{"num_deleted":"0","num_feature":"15","num_nodes":"51","size_leaf_vector":"1"}},{"base_weights":[-4.256864E-2,7.261823E-1,-5.947657E-1,-1.4436705E-1,8.6862403E-1,-9.1337934E-2,-9.003901E-1,9.729693E-1,-7.344274E-1,9.199824E-1,-1.2475065E-1,1.9617943E-1,-9.804852E-1,-5.8603275E-1,-1.4029188E0,9.21764E-3,1.3159914E-1,4.2527133E-1,-1.593883E-1,1.0352546E0,2.9335722E-1,-4.332428E-1,7.7771515E-1,-3.2514596E-1,-1.636057E-1,-7.592253E-1,5.295715E-1,-1.6730744E0,-5.2367496E-1,-3.8330656E-2,1.247669E-1,1.0790811E-1,-2.6114339E-2,-1.141709E-1,5.1053155E-2,-1.4362839E-1,-1.8454043E-2,8.81255E-3,1.2276765E-1,-1.3282238E-1,2.9803036E-2,-3.309868E-2,-1.4221811E-1,-1.0598612E-1,9.747561E-2,1.562314E-2,-1.811552E-1,-1.4904495E-1,4.0573265E-2],"categories":[],"categories_nodes":[],"categories_segments":[],"categories_sizes":[],"default_left":[0,0,0,0,0,0,0,0,0,0,0,0,0,0,0,0,0,0,0,0,0,0,0,0,0,0,0,0,0,0,0,0,0,0,0,0,0,0,0,0,0,0,0,0,0,0,0,0,0],"id":1,"left_children":[1,3,5,7,9,11,13,15,17,19,-1,21,23,25,27,-1,-1,29,-1,31,33,35,37,39,-1,41,43,45,47,-1,-1,-1,-1,-1,-1,-1,-1,-1,-1,-1,-1,-1,-1,-1,-1,-1,-1,-1,-1],"loss_changes":[1.0303168E2,1.2709923E1,2.1644054E1,1.0688362E1,1.0641846E1,1.4113576E1,1.3040535E1,1.588222E0,1.1113103E1,5.8984375E0,0E0,1.5703822E1,5.2562685E0,1.1164309E1,6.9748077E0,0E0,0E0,3.9665732E0,0E0,4.379822E0,5.1756406E0,4.9245243E0,6.7737207E0,5.3876314E0,0E0,1.3334549E1,6.7464647E0,6.5723877E0,8.89292E0,0E0,0E0,0E0,0E0,0E0,0E0,0E0,0E0,0E0,0E0,0E0,0E0,0E0,0E0,0E0,0E0,0E0,0E0,0E0,0E0],"parents":[2147483647,0,0,1,1,2,2,3,3,4,4,5,5,6,6,7,7,8,8,9,9,11,11,12,12,13,13,14,14,17,17,19,19,20,20,21,21,22,22,23,23,25,25,26,26,27,27,28,28],"right_children":[2,4,6,8,10,12,14,16,18,20,-1,22,24,26,28,-1,-1,30,-1,32,34,36,38,40,-1,42,44,46,48,-1,-1,-1,-1,-1,-1,-1,-1,-1,-1,-1,-1,-1,-1,-1,-1,-1,-1,-1,-1],"split_conditions":[8E0,1.99E2,5.46023E3,2E0,1.438231E4,1.48E2,1.2E-1,2.1E1,1E1,2.6E1,-1.2475065E-1,1.04E2,3.26E2,1.87E2,2.5E1,9.21764E-3,1.3159914E-1,1.133779E4,-1.593883E-1,5.9E-1,3.14E2,1E1,4.2E-1,1.1E1,-1.636057E-1,1.05E2,1.01E2,3E-2,1.05E2,-3.8330656E-2,1.247669E-1,1.0790811E-1,-2.6114339E-2,-1.141709E-1,5.1053155E-2,-1.4362839E-1,-1.8454043E-2,8.81255E-3,1.2276765E-1,-1.3282238E-1,2.9803036E-2,-3.309868E-2,-1.4221811E-1,-1.0598612E-1,9.747561E-2,1.562314E-2,-1.811552E-1,-1.4904495E-1,4.0573265E-2],"split_indices":[9,5,7,3,7,9,13,6,6,6,0,9,5,9,6,0,0,7,0,10,5,6,12,3,0,9,5,10,9,0,0,0,0,0,0,0,0,0,0,0,0,0,0,0,0,0,0,0,0],"split_type":[0,0,0,0,0,0,0,0,0,0,0,0,0,0,0,0,0,0,0,0,0,0,0,0,0,0,0,0,0,0,0,0,0,0,0,0,0,0,0,0,0,0,0,0,0,0,0,0,0],"sum_hessian":[2.4069441E2,1.00485985E2,1.4020842E2,1.4127939E1,8.635805E1,5.345524E1,8.675319E1,4.658219E0,9.469721E0,8.486366E1,1.4943827E0,4.0982407E1,1.2472834E1,5.4701057E1,3.2052128E1,1.6612563E0,2.9969625E0,4.2458315E0,5.223889E0,7.11272E1,1.3736472E1,1.980335E1,2.1179054E1,6.985643E0,5.4871907E0,4.762668E1,7.0743804E0,2.382793E1,8.224198E0,2.4101238E0,1.8357075E0,6.8963425E1,2.1637678E0,1.2459896E0,1.2490483E1,2.9858825E0,1.6817467E1,8.834922E0,1.2344133E1,2.2433393E0,4.7423034E0,2.9846495E1,1.7780184E1,1.2458012E0,5.828579E0,1.6678075E0,2.2160122E1,3.735185E0,4.4890137E0],"tree_param":{"num_deleted":"0","num_feature":"15","num_nodes":"49","size_leaf_vector":"1"}},{"base_weights":[5.1483404E-2,7.6468414E-1,-4.881861E-1,8.88653E-1,-2.1692085E-1,-8.683606E-1,-1.1464424E-1,-1.3371634E-1,1.0118262E0,7.2629565E-1,-1.635891E-1,5.02554E-1,-9.946674E-1,8.2159825E-2,-1.5992543E-1,7.781228E-1,-9.648496E-1,2.0899473E-2,1.0940853E0,1.2280616E0,-3.8394266E-1,1.1668702E-1,-1.0821815E-1,-5.698487E-1,-1.512301E0,4.7980428E-1,-2.7002755E-1,1.3999717E-1,-2.0582195E-2,-1.4279604E-1,5.9121348E-2,-9.004452E-2,1.0931399E-1,6.2849306E-2,1.2338986E-1,2.6933614E-2,1.4607707E-1,5.7622302E-2,-1.13555185E-1,-9.525805E-2,1.9282864E-2,-1.6306105E-1,2.7159495E-2,-1.8369596E-2,1.2841108E-1,1.04984045E-1,-5.644514E-2],"categories":[],"categories_nodes":[],"categories_segments":[],"categories_sizes":[],"default_left":[0,0,0,0,0,0,0,0,0,0,0,0,0,0,0,0,0,0,0,0,0,0,0,0,0,0,0,0,0,0,0,0,0,0,0,0,0,0,0,0,0,0,0,0,0,0,0],"id":2,"left_children":[1,3,5,7,9,11,13,15,17,19,-1,21,23,25,-1,27,29,31,33,35,37,-1,-1,39,41,43,45,-1,-1,-1,-1,-1,-1,-1,-1,-1,-1,-1,-1,-1,-1,-1,-1,-1,-1,-1,-1],"loss_changes":[9.671821E1,1.3360973E1,2.0222767E1,1.2259041E1,1.850397E1,1.2754135E1,2.1557814E1,9.265414E0,6.9904633E0,5.1867733E0,0E0,8.247409E0,1.34615555E1,9.330724E0,0E0,3.9048848E0,5.4015656E0,8.506567E0,4.3947754E0,9.6031E-1,3.1054664E0,0E0,0E0,1.109487E1,6.511818E0,1.6896284E1,1.4380927E1,0E0,0E0,0E0,0E0,0E0,0E0,0E0,0E0,0E0,0E0,0E0,0E0,0E0,0E0,0E0,0E0,0E0,0E0,0E0,0E0],"parents":[2147483647,0,0,1,1,2,2,3,3,4,4,5,5,6,6,7,7,8,8,9,9,11,11,12,12,13,13,15,15,16,16,17,17,18,18,19,19,20,20,23,23,24,24,25,25,26,26],"right_children":[2,4,6,8,10,12,14,16,18,20,-1,22,24,26,-1,28,30,32,34,36,38,-1,-1,40,42,44,46,-1,-1,-1,-1,-1,-1,-1,-1,-1,-1,-1,-1,-1,-1,-1,-1,-1,-1,-1,-1],"split_conditions":[8E0,2.6E1,6E0,1.86E2,1E0,5.1E1,2.3E-1,1E1,1E0,5.7E-1,-1.635891E-1,1.7E1,5.6E-1,2.47E2,-1.5992543E-1,6E-2,1.381739E4,4E0,5.74204E3,4.31E2,9.1E1,1.1668702E-1,-1.0821815E-1,1.6E-1,1.47433E4,1.66E2,2E-2,1.3999717E-1,-2.0582195E-2,-1.4279604E-1,5.9121348E-2,-9.004452E-2,1.0931399E-1,6.2849306E-2,1.2338986E-1,2.6933614E-2,1.4607707E-1,5.7622302E-2,-1.13555185E-1,-9.525805E-2,1.9282864E-2,-1.6306105E-1,2.7159495E-2,-1.8369596E-2,1.2841108E-1,1.04984045E-1,-5.644514E-2],"split_indices":[9,6,14,5,0,5,13,6,14,12,0,6,10,5,0,13,7,4,7,5,5,0,0,13,7,5,13,0,0,0,0,0,0,0,0,0,0,0,0,0,0,0,0,0,0,0,0],"split_type":[0,0,0,0,0,0,0,0,0,0,0,0,0,0,0,0,0,0,0,0,0,0,0,0,0,0,0,0,0,0,0,0,0,0,0,0,0,0,0,0,0,0,0,0,0,0,0],"sum_hessian":[2.4931628E2,1.07212524E2,1.4210376E2,9.527478E1,1.1937746E1,6.977012E1,7.233364E1,1.0235116E1,8.503966E1,7.464262E0,4.473484E0,5.6345673E0,6.413555E1,6.470131E1,7.632328E0,4.9110107E0,5.3241053E0,6.6143656E0,7.842529E1,5.0677824E0,2.3964796E0,4.1560464E0,1.4785208E0,3.6379776E1,2.775578E1,3.0219267E1,3.4482044E1,2.7501268E0,2.160884E0,4.16643E0,1.1576754E0,3.6436796E0,2.9706862E0,1.9380747E1,5.9044548E1,1.41121E0,3.6565723E0,1.1547092E0,1.2417704E0,2.4057892E1,1.2321882E1,2.6110067E1,1.6457129E0,1.698191E1,1.3237355E1,5.8210783E0,2.8660965E1],"tree_param":{"num_deleted":"0","num_feature":"15","num_nodes":"47","size_leaf_vector":"1"}},{"base_weights":[8.106887E-3,6.8114084E-1,-5.1657605E-1,9.6784383E-1,4.615499E-1,-8.8892037E-1,-1.9119902E-1,-2.6740972E-2,1.0316393E0,-1.2481558E0,6.4428973E-1,-1.4420284E0,-4.7031307E-1,-3.9705452E-1,7.5853306E-1,6.4277464E-1,1.2377168E0,-1.6975261E-1,4.7605578E-2,4.301987E-1,1.0654414E0,-1.5569388E0,9.261789E-3,-1.0929319E0,4.5301262E-1,-1.8299907E-1,-1.565722E-1,-3.1766996E-1,1.0065604E0,8.388259E-2,-1.170691E-2,1.301046E-1,4.257537E-2,5.386619E-2,-1.2851058E-1,-5.4768478E-3,1.17225505E-1,-5.0272137E-2,-1.6899455E-1,-1.2148744E-1,6.8460435E-2,-1.1764487E-1,7.847355E-2,4.081967E-2,-5.7791423E-2,-1.04811944E-1,5.8580257E-2,1.2588823E-1,-8.343124E-3],"categories":[],"categories_nodes":[],"categories_segments":[],"categories_sizes":[],"default_left":[0,0,0,0,0,0,0,0,0,0,0,0,0,0,0,0,0,0,0,0,0,0,0,0,0,0,0,0,0,0,0,0,0,0,0,0,0,0,0,0,0,0,0,0,0,0,0,0,0],"id":3,"left_children":[1,3,5,7,9,11,13,-1,15,17,19,21,23,25,27,29,31,-1,-1,33,35,37,-1,39,41,43,-1,45,47,-1,-1,-1,-1,-1,-1,-1,-1,-1,-1,-1,-1,-1,-1,-1,-1,-1,-1,-1,-1],"loss_changes":[8.9318695E1,6.528824E0,1.7050694E1,3.9909782E0,2.1004082E1,1.4605915E1,1.5380377E1,0E0,2.8133163E0,5.9091635E0,4.867708E0,5.0737076E0,2.2949137E1,1.5735009E1,4.078951E0,2.7318912E0,9.0411377E-1,0E0,0E0,8.290323E0,2.3652382E0,2.804844E0,0E0,5.951744E0,9.808193E0,1.3138258E1,0E0,2.8563933E0,3.3188305E0,0E0,0E0,0E0,0E0,0E0,0E0,0E0,0E0,0E0,0E0,0E0,0E0,0E0,0E0,0E0,0E0,0E0,0E0,0E0,0E0],"parents":[2147483647,0,0,1,1,2,2,3,3,4,4,5,5,6,6,8,8,9,9,10,10,11,11,12,12,13,13,14,14,15,15,16,16,19,19,20,20,21,21,23,23,24,24,25,25,27,27,28,28],"right_children":[2,4,6,8,10,12,14,-1,16,18,20,22,24,26,28,30,32,-1,-1,34,36,38,-1,40,42,44,-1,46,48,-1,-1,-1,-1,-1,-1,-1,-1,-1,-1,-1,-1,-1,-1,-1,-1,-1,-1,-1,-1],"split_conditions":[8E0,3.7E-1,1.86E2,9E-2,6.2E1,4.4E-1,1.8E2,-2.6740972E-2,6.8022E3,8.6E-1,7.7E-1,6E0,7E0,1.48E2,3E0,4.95845E3,3.16E2,-1.6975261E-1,4.7605578E-2,7.3E-1,1.24E2,2E0,9.261789E-3,9.6E-1,6.1E1,5.06105E3,-1.565722E-1,1E0,6.6E-1,8.388259E-2,-1.170691E-2,1.301046E-1,4.257537E-2,5.386619E-2,-1.2851058E-1,-5.4768478E-3,1.17225505E-1,-5.0272137E-2,-1.6899455E-1,-1.2148744E-1,6.8460435E-2,-1.1764487E-1,7.847355E-2,4.081967E-2,-5.7791423E-2,-1.04811944E-1,5.8580257E-2,1.2588823E-1,-8.343124E-3],"split_indices":[9,12,11,12,11,12,9,0,7,12,12,4,14,9,14,7,11,0,0,12,11,3,0,10,11,7,0,1,12,0,0,0,0,0,0,0,0,0,0,0,0,0,0,0,0,0,0,0,0],"split_type":[0,0,0,0,0,0,0,0,0,0,0,0,0,0,0,0,0,0,0,0,0,0,0,0,0,0,0,0,0,0,0,0,0,0,0,0,0,0,0,0,0,0,0,0,0,0,0,0,0],"sum_hessian":[2.5093831E2,1.0979772E2,1.4114058E2,4.614381E1,6.365391E1,6.501214E1,7.612845E1,2.1093554E0,4.4034454E1,5.583615E0,5.8070297E1,2.6953506E1,3.805863E1,6.3045246E1,1.30831995E1,1.6679537E1,2.7354918E1,4.4415255E0,1.1420896E0,3.9839504E1,1.8230795E1,2.5062374E1,1.891132E0,2.2621063E1,1.543757E1,5.4262928E1,8.782319E0,2.3978825E0,1.0685317E1,1.3175986E1,3.503551E0,2.481697E1,2.5379481E0,3.8115337E1,1.7241663E0,1.6294248E0,1.660137E1,3.3432539E0,2.171912E1,2.1465057E1,1.1560051E0,2.1804526E0,1.3257117E1,2.171761E1,3.254532E1,1.2373749E0,1.1605077E0,8.55092E0,2.1343968E0],"tree_param":{"num_deleted":"0","num_feature":"15","num_nodes":"49","size_leaf_vector":"1"}},{"base_weights":[1.804732E-2,6.5842456E-1,-4.8129994E-1,-8.773637E-2,7.6699376E-1,-1.5249276E-1,-8.914974E-1,1.0986484E0,-6.594519E-1,8.0025464E-1,-3.592865E-1,-4.96516E-3,-9.834003E-1,-5.8258396E-1,-1.5711933E-1,3.398628E-2,1.2959471E-1,-1.1476175E0,1.1001959E-1,1.0245466E0,5.9787846E-1,-1.10484414E-1,5.785985E-2,-4.3170837E-1,2.6670155E-1,-1.516049E-1,3.009219E-1,-2.9562998E-1,-1.5578751E-1,-1.500452E-1,6.257007E-2,1.4529935E-2,1.1237494E-1,9.1238074E-2,3.104634E-2,1.19956456E-1,-6.0099524E-2,-8.467485E-2,4.501347E-2,-1.0373409E-2,7.496782E-2,-1.0494782E-1,1.1834601E-2],"categories":[],"categories_nodes":[],"categories_segments":[],"categories_sizes":[],"default_left":[0,0,0,0,0,0,0,0,0,0,0,0,0,0,0,0,0,0,0,0,0,0,0,0,0,0,0,0,0,0,0,0,0,0,0,0,0,0,0,0,0,0,0],"id":4,"left_children":[1,3,5,7,9,11,13,15,17,19,21,23,25,27,-1,-1,-1,29,-1,31,33,-1,-1,35,37,-1,39,41,-1,-1,-1,-1,-1,-1,-1,-1,-1,-1,-1,-1,-1,-1,-1],"loss_changes":[7.8672676E1,8.798599E0,1.8511578E1,1.061904E1,3.816082E0,9.550156E0,1.1957451E1,3.2589197E-1,1.025539E1,3.5544014E0,3.0111227E0,7.9058065E0,8.492862E0,1.1780872E1,0E0,0E0,0E0,6.3728027E0,0E0,3.5124474E0,4.295967E0,0E0,0E0,8.044899E0,8.893818E0,0E0,8.5467243E-1,1.1056517E1,0E0,0E0,0E0,0E0,0E0,0E0,0E0,0E0,0E0,0E0,0E0,0E0,0E0,0E0,0E0],"parents":[2147483647,0,0,1,1,2,2,3,3,4,4,5,5,6,6,7,7,8,8,9,9,10,10,11,11,12,12,13,13,17,17,19,19,20,20,23,23,24,24,26,26,27,27],"right_children":[2,4,6,8,10,12,14,16,18,20,22,24,26,28,-1,-1,-1,30,-1,32,34,-1,-1,36,38,-1,40,42,-1,-1,-1,-1,-1,-1,-1,-1,-1,-1,-1,-1,-1,-1,-1],"split_conditions":[1E-2,1.56E2,5.2E-1,2E0,1.449893E4,1.281983E4,9.50716E3,4.6E-1,3.06E2,1E0,2.1E-1,2.2E-1,2.6E1,2.3E1,-1.5711933E-1,3.398628E-2,1.2959471E-1,2.2E-1,1.1001959E-1,2.44127E3,1.2E1,-1.10484414E-1,5.785985E-2,2.2E1,6.7E1,-1.516049E-1,3E1,4.3E-1,-1.5578751E-1,-1.500452E-1,6.257007E-2,1.4529935E-2,1.1237494E-1,9.1238074E-2,3.104634E-2,1.19956456E-1,-6.0099524E-2,-8.467485E-2,4.501347E-2,-1.0373409E-2,7.496782E-2,-1.0494782E-1,1.1834601E-2],"split_indices":[10,5,10,3,7,7,7,12,11,0,13,10,6,6,0,0,0,13,0,7,6,0,0,5,11,0,6,12,0,0,0,0,0,0,0,0,0,0,0,0,0,0,0],"split_type":[0,0,0,0,0,0,0,0,0,0,0,0,0,0,0,0,0,0,0,0,0,0,0,0,0,0,0,0,0,0,0,0,0,0,0,0,0,0,0,0,0,0,0],"sum_hessian":[2.4403741E2,1.0678049E2,1.3725693E2,1.35878E1,9.319269E1,7.694828E1,6.0308655E1,4.118891E0,9.468909E0,9.080067E1,2.3920212E0,6.620038E1,1.0747899E1,4.2740673E1,1.7567984E1,1.4118139E0,2.707077E0,7.684791E0,1.7841182E0,4.114139E1,4.965928E1,1.2334734E0,1.1585478E0,2.5521397E1,4.067898E1,7.4695954E0,3.2783036E0,3.4031044E1,8.709628E0,6.5378394E0,1.1469514E0,4.4211154E0,3.6720276E1,2.2673977E1,2.69853E1,1.8272985E0,2.36941E1,5.2422285E0,3.5436752E1,2.1281407E0,1.1501628E0,1.1519313E1,2.2511732E1],"tree_param":{"num_deleted":"0","num_feature":"15","num_nodes":"43","size_leaf_vector":"1"}},{"base_weights":[3.7776183E-2,5.2372295E-1,-3.0357856E-1,8.42516E-1,3.012181E-1,-5.981293E-1,-1.6645659E-2,6.55614E-1,1.373942E0,7.5782764E-1,-4.9698245E-2,2.8734902E-1,-7.52391E-1,1.4644118E-1,-1.4082164E-1,2.7394253E-1,1.0016742E0,1.4459164E-1,4.2268198E-2,-2.0872404E-1,9.2130524E-1,-4.2956704E-1,9.3903095E-1,-1.3152419E-1,1.2591068E0,-4.3078092E-1,-1.4013548E0,1.05313165E-2,1.0053136E0,-3.3734392E-2,7.380902E-2,1.2752783E-1,3.700381E-2,7.0321046E-2,-1.3505006E-1,4.6481516E-2,1.2317809E-1,-1.6719225E-1,-1.1122744E-2,1.1381934E-1,-9.30048E-3,4.226978E-3,1.6373742E-1,2.9758528E-2,-8.5190795E-2,-1.566836E-1,2.9391874E-2,2.5568351E-2,-7.528616E-2,1.2593324E-1,5.1573373E-4],"categories":[],"categories_nodes":[],"categories_segments":[],"categories_sizes":[],"default_left":[0,0,0,0,0,0,0,0,0,0,0,0,0,0,0,0,0,0,0,0,0,0,0,0,0,0,0,0,0,0,0,0,0,0,0,0,0,0,0,0,0,0,0,0,0,0,0,0,0,0,0],"id":5,"left_children":[1,3,5,7,9,11,13,15,17,19,21,23,25,27,-1,29,31,-1,-1,33,35,37,39,-1,41,43,45,47,49,-1,-1,-1,-1,-1,-1,-1,-1,-1,-1,-1,-1,-1,-1,-1,-1,-1,-1,-1,-1,-1,-1],"loss_changes":[4.135088E1,7.040125E0,1.2371255E1,3.2422352E0,9.99066E0,1.0086485E1,1.728073E1,4.054101E0,6.941414E-2,4.467186E0,1.3947672E1,1.9478785E1,1.2297897E1,7.9560814E0,0E0,5.0611043E0,2.4333744E0,0E0,0E0,5.873844E0,2.7333393E0,1.0388863E1,2.2277098E0,0E0,3.4452486E0,1.3374298E1,6.0822296E0,1.140924E1,2.3597546E0,0E0,0E0,0E0,0E0,0E0,0E0,0E0,0E0,0E0,0E0,0E0,0E0,0E0,0E0,0E0,0E0,0E0,0E0,0E0,0E0,0E0,0E0],"parents":[2147483647,0,0,1,1,2,2,3,3,4,4,5,5,6,6,7,7,8,8,9,9,10,10,11,11,12,12,13,13,15,15,16,16,19,19,20,20,21,21,22,22,24,24,25,25,26,26,27,27,28,28],"right_children":[2,4,6,8,10,12,14,16,18,20,22,24,26,28,-1,30,32,-1,-1,34,36,38,40,-1,42,44,46,48,50,-1,-1,-1,-1,-1,-1,-1,-1,-1,-1,-1,-1,-1,-1,-1,-1,-1,-1,-1,-1,-1,-1],"split_conditions":[8E0,5E0,6E0,7.7E-1,3.7E-1,1.3E-1,2.3E-1,1E0,9.42249E3,8E0,3.21E2,1.6E-1,4E0,1.9E-1,-1.4082164E-1,1.9E1,1.3E1,1.4459164E-1,4.2268198E-2,1.76E2,2.1E2,3E0,3.53E2,-1.3152419E-1,7E0,6E-2,8.7E-1,2.2E1,1.89E2,-3.3734392E-2,7.380902E-2,1.2752783E-1,3.700381E-2,7.0321046E-2,-1.3505006E-1,4.6481516E-2,1.2317809E-1,-1.6719225E-1,-1.1122744E-2,1.1381934E-1,-9.30048E-3,4.226978E-3,1.6373742E-1,2.9758528E-2,-8.5190795E-2,-1.566836E-1,2.9391874E-2,2.5568351E-2,-7.528616E-2,1.2593324E-1,5.1573373E-4],"split_indices":[9,3,14,12,12,10,13,0,7,3,11,13,14,13,0,6,6,0,0,11,11,14,11,0,3,13,12,6,11,0,0,0,0,0,0,0,0,0,0,0,0,0,0,0,0,0,0,0,0,0,0],"split_type":[0,0,0,0,0,0,0,0,0,0,0,0,0,0,0,0,0,0,0,0,0,0,0,0,0,0,0,0,0,0,0,0,0,0,0,0,0,0,0,0,0,0,0,0,0,0,0,0,0,0,0],"sum_hessian":[2.4732309E2,1.018281E2,1.4549498E2,4.0711838E1,6.111626E1,7.125928E1,7.423571E1,3.1771515E1,8.940323E0,2.6054623E1,3.5061638E1,1.0444429E1,6.0814846E1,6.724913E1,6.986579E0,1.5960359E1,1.5811156E1,7.8280363E0,1.1122869E0,3.7291956E0,2.2325428E1,2.5738478E1,9.323162E0,3.8091078E0,6.6353216E0,4.1775677E1,1.9039171E1,5.8935337E1,8.313795E0,7.006256E0,8.9541025E0,1.0321297E1,5.4898596E0,2.2868235E0,1.4423722E0,1.0048418E1,1.227701E1,4.382659E0,2.1355818E1,7.7287955E0,1.5943664E0,1.8371601E0,4.798161E0,1.5412364E1,2.6363314E1,1.7414999E1,1.6241717E0,4.5113033E1,1.3822305E1,6.4232802E0,1.890515E0],"tree_param":{"num_deleted":"0","num_feature":"15","num_nodes":"51","size_leaf_vector":"1"}},{"base_weights":[1.287171E-3,6.07726E-1,-4.259584E-1,6.579377E-1,-1.2294896E-1,6.5359086E-1,-4.955053E-1,8.66388E-2,7.50458E-1,-9.620459E-2,1.0385535E0,-8.5884124E-1,-2.2738978E-1,1.1228571E-1,-3.7805125E-1,8.529569E-1,6.6129565E-2,-3.4717906E-3,1.387165E-1,-6.3977426E-1,-1.4805472E-1,2.0790415E-1,-5.628694E-1,-1.3481617E-1,3.9530642E-2,1.0544646E-1,6.126228E-2,6.8529375E-2,-8.767712E-2,-7.9561315E-2,9.1637395E-2,-4.8123695E-2,5.9699144E-2,4.0212993E-2,-7.8821056E-2],"categories":[],"categories_nodes":[],"categories_segments":[],"categories_sizes":[],"default_left":[0,0,0,0,0,0,0,0,0,0,0,0,0,0,0,0,0,0,0,0,0,0,0,0,0,0,0,0,0,0,0,0,0,0,0],"id":6,"left_children":[1,3,5,7,-1,9,11,13,15,-1,17,19,21,-1,23,25,27,-1,-1,29,-1,31,33,-1,-1,-1,-1,-1,-1,-1,-1,-1,-1,-1,-1],"loss_changes":[6.128638E1,9.827763E0,1.0742813E1,4.9995003E0,0E0,6.491147E0,1.2560604E1,7.3992863E0,5.7185287E0,0E0,2.8961945E0,6.575989E0,1.1318305E1,0E0,8.596866E0,2.8177528E0,7.495174E0,0E0,0E0,1.106156E1,0E0,9.434969E0,9.795432E0,0E0,0E0,0E0,0E0,0E0,0E0,0E0,0E0,0E0,0E0,0E0,0E0],"parents":[2147483647,0,0,1,1,2,2,3,3,5,5,6,6,7,7,8,8,10,10,11,11,12,12,14,14,15,15,16,16,19,19,21,21,22,22],"right_children":[2,4,6,8,-1,10,12,14,16,-1,18,20,22,-1,24,26,28,-1,-1,30,-1,32,34,-1,-1,-1,-1,-1,-1,-1,-1,-1,-1,-1,-1],"split_conditions":[3E-2,1.449893E4,8.4632E2,1.86E2,-1.2294896E-1,3.2E-1,1.6E2,2E0,2.6E1,-9.620459E-2,7E0,1.17E2,2.69E2,1.1228571E-1,2.12E2,4.41E2,1E0,-3.4717906E-3,1.387165E-1,1.15E2,-1.4805472E-1,1E0,3E-2,-1.3481617E-1,3.9530642E-2,1.0544646E-1,6.126228E-2,6.8529375E-2,-8.767712E-2,-7.9561315E-2,9.1637395E-2,-4.8123695E-2,5.9699144E-2,4.0212993E-2,-7.8821056E-2],"split_indices":[10,7,7,5,0,12,11,3,6,0,3,11,5,0,11,5,0,0,0,11,0,0,13,0,0,0,0,0,0,0,0,0,0,0,0],"split_type":[0,0,0,0,0,0,0,0,0,0,0,0,0,0,0,0,0,0,0,0,0,0,0,0,0,0,0,0,0,0,0,0,0,0,0],"sum_hessian":[2.3453809E2,9.6765396E1,1.3777269E2,9.4815926E1,1.9494687E0,7.830171E0,1.2994252E2,1.3484932E1,8.133099E1,1.2182552E0,6.611916E0,5.423834E1,7.570418E1,3.7365017E0,9.74843E0,7.0521805E1,1.0809191E1,1.8418417E0,4.7700744E0,4.160669E1,1.2631649E1,3.31158E1,4.2588375E1,3.994463E0,5.753967E0,3.6516838E1,3.4004967E1,6.689607E0,4.119583E0,3.8263554E1,3.3431368E0,1.1864636E1,2.1251165E1,7.913805E0,3.467457E1],"tree_param":{"num_deleted":"0","num_feature":"15","num_nodes":"35","size_leaf_vector":"1"}},{"base_weights":[3.0732475E-2,4.9886242E-1,-3.3369803E-1,7.765888E-1,2.8277192E-1,-7.205463E-1,2.94602E-2,-8.475505E-2,8.810782E-1,6.174418E-1,-5.4170366E-2,6.7243904E-1,-8.207344E-1,-5.6102777E-1,2.2071713E-1,7.969365E-1,-1.3645576E-1,5.598572E-1,1.0820059E0,-1.1379532E-1,7.2962433E-1,-1.4256088E-1,1.4649174E-1,9.8510705E-2,1.0117045E-2,1.162912E-1,-9.5966446E-1,-1.0634613E0,1.4043088E-1,-8.2352895E-1,4.5136386E-1,1.0569724E-1,1.3343887E-2,-5.483848E-2,7.64186E-2,1.3024245E-1,4.567894E-2,9.988087E-2,-8.063159E-4,1.0843612E-1,-3.6065597E-2,6.418576E-2,-1.0676525E-1,-1.2441938E-1,-1.9634826E-2,3.8116496E-2,-1.274601E-1,6.579299E-2,-1.0922767E-1,2.2842808E-2,1.4279945E-1],"categories":[],"categories_nodes":[],"categories_segments":[],"categories_sizes":[],"default_left":[0,0,0,0,0,0,0,0,0,0,0,0,0,0,0,0,0,0,0,0,0,0,0,0,0,0,0,0,0,0,0,0,0,0,0,0,0,0,0,0,0,0,0,0,0,0,0,0,0,0,0],"id":7,"left_children":[1,3,5,7,9,11,13,15,17,19,21,23,25,27,29,31,-1,33,35,-1,37,-1,39,-1,-1,41,43,45,-1,47,49,-1,-1,-1,-1,-1,-1,-1,-1,-1,-1,-1,-1,-1,-1,-1,-1,-1,-1,-1,-1],"loss_changes":[4.044974E1,6.007368E0,1.8757635E1,4.109543E0,6.7911E0,9.569836E0,8.001122E0,7.58965E0,1.9803696E0,6.766699E0,8.6797905E0,7.729311E-1,8.017685E0,1.8622868E1,1.32340765E1,5.56535E-1,0E0,4.379858E0,2.6543102E0,0E0,5.7556057E0,0E0,1.3594527E1,0E0,0E0,6.119755E0,1.126606E1,4.873314E0,0E0,4.7062135E0,9.3382435E0,0E0,0E0,0E0,0E0,0E0,0E0,0E0,0E0,0E0,0E0,0E0,0E0,0E0,0E0,0E0,0E0,0E0,0E0,0E0,0E0],"parents":[2147483647,0,0,1,1,2,2,3,3,4,4,5,5,6,6,7,7,8,8,9,9,10,10,11,11,12,12,13,13,14,14,15,15,17,17,18,18,20,20,22,22,25,25,26,26,27,27,29,29,30,30],"right_children":[2,4,6,8,10,12,14,16,18,20,22,24,26,28,30,32,-1,34,36,-1,38,-1,40,-1,-1,42,44,46,-1,48,50,-1,-1,-1,-1,-1,-1,-1,-1,-1,-1,-1,-1,-1,-1,-1,-1,-1,-1,-1,-1],"split_conditions":[8E0,1.2E1,6E0,1E0,5E0,8.4632E2,4E0,4E0,3.38E2,2.70819E3,2.6E2,2E0,1.3E-1,6.93E2,9E0,1.13E2,-1.3645576E-1,2.97942E3,1.2E1,-1.1379532E-1,9.88939E3,-1.4256088E-1,3.73E2,9.8510705E-2,1.0117045E-2,7.63973E3,7.6E-1,3.2E1,1.4043088E-1,1.1E-1,1.81E2,1.0569724E-1,1.3343887E-2,-5.483848E-2,7.64186E-2,1.3024245E-1,4.567894E-2,9.988087E-2,-8.063159E-4,1.0843612E-1,-3.6065597E-2,6.418576E-2,-1.0676525E-1,-1.2441938E-1,-1.9634826E-2,3.8116496E-2,-1.274601E-1,6.579299E-2,-1.0922767E-1,2.2842808E-2,1.4279945E-1],"split_indices":[9,6,14,14,3,7,3,6,5,7,5,14,12,5,6,5,0,7,3,0,7,0,5,0,0,7,12,5,0,12,9,0,0,0,0,0,0,0,0,0,0,0,0,0,0,0,0,0,0,0,0],"split_type":[0,0,0,0,0,0,0,0,0,0,0,0,0,0,0,0,0,0,0,0,0,0,0,0,0,0,0,0,0,0,0,0,0,0,0,0,0,0,0,0,0,0,0,0,0,0,0,0,0,0,0],"sum_hessian":[2.351259E2,1.0275845E2,1.3236745E2,4.3831276E1,5.8927174E1,6.3616703E1,6.875075E1,4.7623496E0,3.9068928E1,2.9145628E1,2.9781548E1,3.8852725E0,5.9731434E1,1.634713E1,5.2403614E1,3.0431418E0,1.7192078E0,1.6491114E1,2.2577812E1,1.2014818E0,2.7944145E1,3.022123E0,2.6759424E1,2.042789E0,1.8424834E0,7.7337117E0,5.199772E1,1.3384345E1,2.9627845E0,9.015535E0,4.338808E1,1.7602422E0,1.2828996E0,2.3050604E0,1.4186054E1,1.5891975E1,6.6858373E0,2.0214018E1,7.7301273E0,8.99212E0,1.7767303E1,5.673184E0,2.0605278E0,3.741947E1,1.4578249E1,1.6040559E0,1.178029E1,1.1619902E0,7.8535447E0,3.6329113E1,7.058965E0],"tree_param":{"num_deleted":"0","num_feature":"15","num_nodes":"51","size_leaf_vector":"1"}},{"base_weights":[-3.5147436E-3,5.151883E-1,-4.09241E-1,1.0577789E-1,6.885764E-1,-6.979466E-1,-1.3860542E-1,-1.2061676E-1,3.172492E-1,5.635093E-1,1.0772017E0,2.5669026E-1,-8.5459435E-1,-5.828999E-1,2.3612398E-1,5.268415E-1,-1.0844482E0,6.209319E-1,-1.1041559E-1,1.1913157E0,1.5419261E-3,7.0770425E-1,-9.842645E-2,-9.41998E-1,7.032444E-1,-1.376172E-1,-1.3021586E0,-1.2406107E-1,4.228554E-1,-6.353971E-2,7.218989E-2,4.472304E-3,-1.6620527E-1,6.2919967E-3,7.588537E-2,7.965147E-4,1.3048252E-1,1.0866021E-1,-7.9003416E-2,4.291155E-3,-1.0348182E-1,2.5196983E-2,8.613661E-2,2.164984E-2,-1.317998E-1,-1.559944E-1,3.751994E-2,6.1050054E-2,-1.1222418E-1],"categories":[],"categories_nodes":[],"categories_segments":[],"categories_sizes":[],"default_left":[0,0,0,0,0,0,0,0,0,0,0,0,0,0,0,0,0,0,0,0,0,0,0,0,0,0,0,0,0,0,0,0,0,0,0,0,0,0,0,0,0,0,0,0,0,0,0,0,0],"id":8,"left_children":[1,3,5,7,9,11,13,-1,15,17,19,21,23,25,27,29,31,33,-1,35,-1,37,-1,39,41,43,45,-1,47,-1,-1,-1,-1,-1,-1,-1,-1,-1,-1,-1,-1,-1,-1,-1,-1,-1,-1,-1,-1],"loss_changes":[4.834979E1,7.0851917E0,9.975166E0,9.033511E0,2.8271065E0,9.509306E0,1.1422804E1,0E0,8.692876E0,6.005131E0,1.9329891E0,6.028097E0,7.960247E0,9.845701E0,1.0860284E1,6.063159E0,2.6328993E0,4.134413E0,0E0,1.9411812E0,0E0,5.1534348E0,0E0,4.7229767E0,2.6992917E-2,8.83357E0,5.709358E0,0E0,1.0548548E1,0E0,0E0,0E0,0E0,0E0,0E0,0E0,0E0,0E0,0E0,0E0,0E0,0E0,0E0,0E0,0E0,0E0,0E0,0E0,0E0],"parents":[2147483647,0,0,1,1,2,2,3,3,4,4,5,5,6,6,8,8,9,9,10,10,11,11,12,12,13,13,14,14,15,15,16,16,17,17,19,19,21,21,23,23,24,24,25,25,26,26,28,28],"right_children":[2,4,6,8,10,12,14,-1,16,18,20,22,24,26,28,30,32,34,-1,36,-1,38,-1,40,42,44,46,-1,48,-1,-1,-1,-1,-1,-1,-1,-1,-1,-1,-1,-1,-1,-1,-1,-1,-1,-1,-1,-1],"split_conditions":[5E-2,1.31E2,6E0,2.04E2,5.62E2,1.3E-1,1.03E2,-1.2061676E-1,1.08E2,5.44E2,2.4E1,4E0,3.6E-1,1.8E1,5.2E1,2E0,4.03E2,2E0,-1.1041559E-1,1E0,1.5419261E-3,6.5E-1,-9.842645E-2,2.2E1,7.1E-1,1.3E-1,3.6E1,-1.2406107E-1,2.3E-1,-6.353971E-2,7.218989E-2,4.472304E-3,-1.6620527E-1,6.2919967E-3,7.588537E-2,7.965147E-4,1.3048252E-1,1.0866021E-1,-7.9003416E-2,4.291155E-3,-1.0348182E-1,2.5196983E-2,8.613661E-2,2.164984E-2,-1.317998E-1,-1.559944E-1,3.751994E-2,6.1050054E-2,-1.1222418E-1],"split_indices":[10,11,14,5,5,12,9,0,11,5,6,14,13,6,11,14,5,4,0,14,0,10,0,11,10,13,3,0,13,0,0,0,0,0,0,0,0,0,0,0,0,0,0,0,0,0,0,0,0],"split_type":[0,0,0,0,0,0,0,0,0,0,0,0,0,0,0,0,0,0,0,0,0,0,0,0,0,0,0,0,0,0,0,0,0,0,0,0,0,0,0,0,0,0,0,0,0,0,0,0,0],"sum_hessian":[2.2774138E2,9.983586E1,1.2790552E2,3.0181126E1,6.965473E1,6.112275E1,6.678277E1,3.53662E0,2.6644506E1,5.454962E1,1.5105109E1,8.525897E0,5.259685E1,3.0301065E1,3.6481705E1,2.3721613E1,2.9228938E0,5.3340614E1,1.2090099E0,1.3529089E1,1.5760201E0,6.5683856E0,1.9575114E0,5.0176956E1,2.4198961E0,1.945073E1,1.0850335E1,3.461689E0,3.3020016E1,3.0846138E0,2.0637E1,1.3013763E0,1.6215173E0,1.0859759E1,4.2480854E1,1.277821E0,1.2251267E1,5.4612923E0,1.1070931E0,4.36783E0,4.5809124E1,1.3008442E0,1.119052E0,1.5590229E1,3.8605008E0,9.465609E0,1.3847265E0,2.998353E1,3.0364857E0],"tree_param":{"num_deleted":"0","num_feature":"15","num_nodes":"49","size_leaf_vector":"1"}},{"base_weights":[-5.1064655E-2,3.5539603E-1,-3.5574475E-1,-1.7835511E-1,5.170256E-1,-6.9002515E-1,-9.0398274E-2,5.4973716E-1,-1.0281492E0,5.643262E-1,-1.0818143E-1,-9.907852E-1,1.3795789E-1,-2.782268E-1,8.7589973E-1,-1.8687691E-1,8.5938877E-1,1.2374446E-1,-1.5835135E-1,6.0331786E-1,-9.62775E-2,-1.1826152E0,-1.7431834E-1,8.306526E-1,-5.711357E-1,1.104871E0,-4.0159535E-1,1.3078806E-1,1.3321458E0,-1.3322899E-1,8.7360576E-2,1.8393716E-2,1.09826624E-1,-1.2402594E-1,9.995547E-2,-1.2223444E-2,6.714953E-2,-1.2676644E-1,6.867797E-2,1.16529405E-1,-7.6756045E-2,6.342114E-3,1.0581519E-1,7.340854E-2,-1.2232291E-1,1.2407865E-1,4.0341076E-2,1.2383807E-1,-5.1434454E-2,-1.12286866E-1,9.194217E-2,1.5081777E-1,4.1758467E-2],"categories":[],"categories_nodes":[],"categories_segments":[],"categories_sizes":[],"default_left":[0,0,0,0,0,0,0,0,0,0,0,0,0,0,0,0,0,0,0,0,0,0,0,0,0,0,0,0,0,0,0,0,0,0,0,0,0,0,0,0,0,0,0,0,0,0,0,0,0,0,0,0,0],"id":9,"left_children":[1,3,5,7,9,11,13,15,17,19,-1,21,23,25,27,29,31,33,-1,35,-1,37,39,41,43,45,47,49,51,-1,-1,-1,-1,-1,-1,-1,-1,-1,-1,-1,-1,-1,-1,-1,-1,-1,-1,-1,-1,-1,-1,-1,-1],"loss_changes":[2.779498E1,8.393315E0,1.1308849E1,1.4863278E1,6.21542E0,1.422637E1,1.3423918E1,3.147985E0,7.2403E0,4.9062157E0,0E0,6.313404E0,8.310653E0,1.09476595E1,3.925435E0,6.870042E0,1.314609E0,6.6268544E0,0E0,3.616314E0,0E0,6.202137E0,8.120185E0,1.412612E0,8.112194E0,5.5003166E-3,1.1223124E1,6.65672E0,5.568323E-1,0E0,0E0,0E0,0E0,0E0,0E0,0E0,0E0,0E0,0E0,0E0,0E0,0E0,0E0,0E0,0E0,0E0,0E0,0E0,0E0,0E0,0E0,0E0,0E0],"parents":[2147483647,0,0,1,1,2,2,3,3,4,4,5,5,6,6,7,7,8,8,9,9,11,11,12,12,13,13,14,14,15,15,16,16,17,17,19,19,21,21,22,22,23,23,24,24,25,25,26,26,27,27,28,28],"right_children":[2,4,6,8,10,12,14,16,18,20,-1,22,24,26,28,30,32,34,-1,36,-1,38,40,42,44,46,48,50,52,-1,-1,-1,-1,-1,-1,-1,-1,-1,-1,-1,-1,-1,-1,-1,-1,-1,-1,-1,-1,-1,-1,-1,-1],"split_conditions":[8E0,2.6E2,1.86E2,1.1E1,5.9E-1,1.5E1,1.8E2,7.11629E3,2E0,1.438231E4,-1.0818143E-1,6.25E2,6E-2,2.6E1,4.44E2,1.8E-1,1.77E2,1.9E1,-1.5835135E-1,2.64064E3,-9.62775E-2,4E-1,6.41E2,7E0,2.7E-1,1.7E1,1E-2,3.8E-1,1.3E-1,-1.3322899E-1,8.7360576E-2,1.8393716E-2,1.09826624E-1,-1.2402594E-1,9.995547E-2,-1.2223444E-2,6.714953E-2,-1.2676644E-1,6.867797E-2,1.16529405E-1,-7.6756045E-2,6.342114E-3,1.0581519E-1,7.340854E-2,-1.2232291E-1,1.2407865E-1,4.0341076E-2,1.2383807E-1,-5.1434454E-2,-1.12286866E-1,9.194217E-2,1.5081777E-1,4.1758467E-2],"split_indices":[9,5,11,6,10,3,9,7,3,7,0,5,13,5,5,13,5,6,0,7,0,13,5,14,10,6,13,10,13,0,0,0,0,0,0,0,0,0,0,0,0,0,0,0,0,0,0,0,0,0,0,0,0],"split_type":[0,0,0,0,0,0,0,0,0,0,0,0,0,0,0,0,0,0,0,0,0,0,0,0,0,0,0,0,0,0,0,0,0,0,0,0,0,0,0,0,0,0,0,0,0,0,0,0,0,0,0,0,0],"sum_hessian":[2.224209E2,9.522236E1,1.2719853E2,2.2108788E1,7.311357E1,5.5579567E1,7.1618965E1,1.2097179E1,1.0011608E1,7.164115E1,1.4724164E0,4.0625843E1,1.4953727E1,6.055951E1,1.1059457E1,3.697613E0,8.399567E0,3.5095506E0,6.502058E0,7.044734E1,1.1938133E0,3.253358E1,8.092261E0,7.4776144E0,7.4761124E0,4.3078547E0,5.6251656E1,4.688751E0,6.3707056E0,1.6544062E0,2.0432067E0,2.6569011E0,5.7426653E0,1.2095875E0,2.299963E0,5.982965E0,6.446437E1,3.1425732E1,1.1078491E0,2.1877582E0,5.9045033E0,2.0026243E0,5.4749904E0,2.4488304E0,5.0272818E0,2.9645746E0,1.34328E0,2.976334E0,5.3275322E1,1.6469115E0,3.0418394E0,4.798108E0,1.5725974E0],"tree_param":{"num_deleted":"0","num_feature":"15","num_nodes":"53","size_leaf_vector":"1"}},{"base_weights":[-4.6587367E-2,3.017629E-1,-2.928064E-1,3.7547815E-1,-1.132109E0,5.6465966E-1,-3.7581596E-1,-1.566717E-1,4.7451758E-1,-4.8976946E-3,-1.4782941E-1,7.722997E-1,-7.9346806E-2,-2.3939104E-1,-9.706661E-1,1.09960794E-1,-4.992645E-1,4.630392E-2,5.8318686E-1,1.0801724E0,1.0361892E-1,2.3955759E-2,-5.258664E-1,-1.0904465E0,6.826155E-2,-9.401116E-2,5.4270476E-2,2.65591E-2,-1.3328838E-1,6.5208815E-2,-1.2414771E-2,3.4276195E-2,1.1933269E-1,1.1323463E-1,-9.734894E-2,-5.7437338E-2,3.758665E-2,-9.5912755E-2,-1.8431846E-2,-1.2011939E-1,-1.4525886E-2],"categories":[],"categories_nodes":[],"categories_segments":[],"categories_sizes":[],"default_left":[0,0,0,0,0,0,0,0,0,0,0,0,0,0,0,0,0,0,0,0,0,0,0,0,0,0,0,0,0,0,0,0,0,0,0,0,0,0,0,0,0],"id":10,"left_children":[1,3,5,7,9,11,13,15,17,-1,-1,19,-1,21,23,-1,25,27,29,31,33,35,37,39,-1,-1,-1,-1,-1,-1,-1,-1,-1,-1,-1,-1,-1,-1,-1,-1,-1],"loss_changes":[1.9450584E1,1.035821E1,9.662381E0,4.8246536E0,1.7439771E0,4.0301466E0,9.639833E0,6.959414E0,3.5206242E0,0E0,0E0,2.1563191E0,0E0,7.5781674E0,5.1737843E0,0E0,6.2018423E0,5.349487E0,3.0402412E0,2.1163177E-1,6.176834E0,1.1419077E1,6.937437E0,2.0490017E0,0E0,0E0,0E0,0E0,0E0,0E0,0E0,0E0,0E0,0E0,0E0,0E0,0E0,0E0,0E0,0E0,0E0],"parents":[2147483647,0,0,1,1,2,2,3,3,4,4,5,5,6,6,7,7,8,8,11,11,13,13,14,14,16,16,17,17,18,18,19,19,20,20,21,21,22,22,23,23],"right_children":[2,4,6,8,10,12,14,16,18,-1,-1,20,-1,22,24,-1,26,28,30,32,34,36,38,40,-1,-1,-1,-1,-1,-1,-1,-1,-1,-1,-1,-1,-1,-1,-1,-1,-1],"split_conditions":[7E0,1E1,3.5E1,1.97E2,3E0,1E0,1.189514E4,1.7E1,4.39279E3,-4.8976946E-3,-1.4782941E-1,1.9E1,-7.9346806E-2,4.6E-1,3E1,1.09960794E-1,1.151169E4,3.73936E3,3E1,2E0,6E-2,1E0,7.2E-1,1.87E2,6.826155E-2,-9.401116E-2,5.4270476E-2,2.65591E-2,-1.3328838E-1,6.5208815E-2,-1.2414771E-2,3.4276195E-2,1.1933269E-1,1.1323463E-1,-9.734894E-2,-5.7437338E-2,3.758665E-2,-9.5912755E-2,-1.8431846E-2,-1.2011939E-1,-1.4525886E-2],"split_indices":[9,14,5,5,3,2,7,5,7,0,0,6,0,10,6,0,7,7,3,4,10,0,10,9,0,0,0,0,0,0,0,0,0,0,0,0,0,0,0,0,0],"split_type":[0,0,0,0,0,0,0,0,0,0,0,0,0,0,0,0,0,0,0,0,0,0,0,0,0,0,0,0,0,0,0,0,0,0,0,0,0,0,0,0,0],"sum_hessian":[2.2474469E2,9.297633E1,1.3176837E2,8.9132195E1,3.8441403E0,1.1118192E1,1.2065018E2,1.3894359E1,7.523783E1,1.2075319E0,2.6366084E0,1.001793E1,1.1002617E0,9.928277E1,2.1367403E1,2.503697E0,1.1390661E1,1.551738E1,5.972045E1,6.4382606E0,3.5796695E0,5.220704E1,4.7075733E1,2.0241352E1,1.1260517E0,8.0728655E0,3.317796E0,1.4085287E1,1.4320927E0,5.449064E1,5.229813E0,1.3925272E0,5.0457335E0,1.8047247E0,1.7749448E0,1.9100183E1,3.3106853E1,1.9954645E1,2.7121088E1,1.7875973E1,2.3653781E0],"tree_param":{"num_deleted":"0","num_feature":"15","num_nodes":"41","size_leaf_vector":"1"}},{"base_weights":[-1.7329931E-2,3.1451204E-1,-3.171559E-1,1.3969195E-1,7.772474E-1,-1.9717096E-1,-1.1175277E0,2.0912701E-1,-1.4504771E-1,9.8530364E-1,-2.6905826E-1,-5.548302E-1,9.83928E-2,-1.3234626E-1,6.951066E-2,6.177002E-3,6.550501E-1,1.1773388E0,-2.9397672E-1,-1.3640021E-1,5.554446E-1,-6.941437E-1,7.9078776E-1,-5.0675206E-2,1.176986E0,1.4043397E-2,-1.79891E-1,1.21701874E-1,9.728084E-3,1.2396007E-1,1.1204061E-2,-1.1194916E-1,9.4631046E-2,8.842855E-2,-8.215602E-3,6.981096E-2,-8.6095594E-2,1.337608E-1,-3.5895929E-3,2.6590798E-2,-7.2983116E-2,2.0164823E-2,1.5028173E-1],"categories":[],"categories_nodes":[],"categories_segments":[],"categories_sizes":[],"default_left":[0,0,0,0,0,0,0,0,0,0,0,0,0,0,0,0,0,0,0,0,0,0,0,0,0,0,0,0,0,0,0,0,0,0,0,0,0,0,0,0,0,0,0],"id":11,"left_children":[1,3,5,7,9,11,13,15,-1,17,19,21,23,-1,-1,25,27,29,31,-1,33,35,37,39,41,-1,-1,-1,-1,-1,-1,-1,-1,-1,-1,-1,-1,-1,-1,-1,-1,-1,-1],"loss_changes":[2.1171438E1,8.064151E0,1.0512109E1,8.534111E0,6.24794E0,1.045688E1,6.27862E0,6.5391273E0,0E0,6.0306396E0,5.582143E0,8.923826E0,8.859013E0,0E0,0E0,1.2538614E1,6.966813E0,1.2088165E0,4.970906E0,0E0,8.608204E-1,1.0126854E1,2.1540072E0,1.0738423E1,1.8219271E0,0E0,0E0,0E0,0E0,0E0,0E0,0E0,0E0,0E0,0E0,0E0,0E0,0E0,0E0,0E0,0E0,0E0,0E0],"parents":[2147483647,0,0,1,1,2,2,3,3,4,4,5,5,6,6,7,7,9,9,10,10,11,11,12,12,15,15,16,16,17,17,18,18,20,20,21,21,22,22,23,23,24,24],"right_children":[2,4,6,8,10,12,14,16,-1,18,20,22,24,-1,-1,26,28,30,32,-1,34,36,38,40,42,-1,-1,-1,-1,-1,-1,-1,-1,-1,-1,-1,-1,-1,-1,-1,-1,-1,-1],"split_conditions":[2.6E1,5.82E2,2.3E-1,5.44E2,1.4E1,6E0,4.1E-1,1.4E1,-1.4504771E-1,4.3E-1,1.79E2,1.95E2,9.3E-1,-1.3234626E-1,6.951066E-2,4.98E2,3.2E-1,9E0,1.4E1,-1.3640021E-1,4.4E-1,5.1E1,4E0,5E-1,4.1E-1,1.4043397E-2,-1.79891E-1,1.21701874E-1,9.728084E-3,1.2396007E-1,1.1204061E-2,-1.1194916E-1,9.4631046E-2,8.842855E-2,-8.215602E-3,6.981096E-2,-8.6095594E-2,1.337608E-1,-3.5895929E-3,2.6590798E-2,-7.2983116E-2,2.0164823E-2,1.5028173E-1],"split_indices":[9,5,13,5,3,14,13,3,0,10,11,9,10,0,0,5,12,14,9,0,12,5,3,10,12,0,0,0,0,0,0,0,0,0,0,0,0,0,0,0,0,0,0],"split_type":[0,0,0,0,0,0,0,0,0,0,0,0,0,0,0,0,0,0,0,0,0,0,0,0,0,0,0,0,0,0,0,0,0,0,0,0,0,0,0,0,0,0,0],"sum_hessian":[2.1078674E2,1.00028275E2,1.1075848E2,7.3545044E1,2.6483225E1,9.740299E1,1.3355478E1,7.130019E1,2.2448502E0,2.2139185E1,4.34404E0,4.3675022E1,5.372797E1,1.2235287E1,1.1201916E0,4.9696163E1,2.1604033E1,1.9318878E1,2.8203073E0,1.5849224E0,2.7591176E0,4.0016235E1,3.6587868E0,4.804138E1,5.6865883E0,4.7114155E1,2.5820086E0,1.0172752E1,1.1431279E1,1.8097542E1,1.2213354E0,1.7517585E0,1.0685487E0,1.5650508E0,1.1940668E0,3.9407594E0,3.6075478E1,1.8301626E0,1.8286242E0,3.3182224E1,1.4859159E1,1.8293917E0,3.8571966E0],"tree_param":{"num_deleted":"0","num_feature":"15","num_nodes":"43","size_leaf_vector":"1"}},{"base_weights":[1.01239376E-1,3.2206205E-1,-3.968296E-1,4.6317592E-1,-2.5280206E-2,-2.5143516E-1,-1.2593304E-1,8.114207E-1,2.6443717E-1,-8.4607464E-1,2.3840132E-1,4.5439273E-2,-7.86816E-1,-5.5615324E-1,9.0903515E-1,4.031686E-1,-7.7109534E-1,-1.3726793E-1,9.217823E-2,-7.026531E-2,1.0557323E0,5.705579E-1,-4.269803E-1,-1.028752E0,7.7895604E-2,3.1135013E-2,-1.0687101E-1,-2.2829752E-2,1.0252049E-1,1.43739795E-2,7.932075E-2,-1.6169004E-1,8.637368E-3,3.2966703E-2,-1.2841867E-1,1.3346356E-1,3.3190453E-3,8.565654E-2,-1.0289013E-1,-1.288621E-1,7.5526647E-3,-1.2034835E-1,9.233281E-2],"categories":[],"categories_nodes":[],"categories_segments":[],"categories_sizes":[],"default_left":[0,0,0,0,0,0,0,0,0,0,0,0,0,0,0,0,0,0,0,0,0,0,0,0,0,0,0,0,0,0,0,0,0,0,0,0,0,0,0,0,0,0,0],"id":12,"left_children":[1,3,5,7,9,11,-1,13,15,17,19,21,23,25,27,29,31,-1,-1,33,35,37,39,41,-1,-1,-1,-1,-1,-1,-1,-1,-1,-1,-1,-1,-1,-1,-1,-1,-1,-1,-1],"loss_changes":[2.5146385E1,7.763487E0,8.501821E0,7.572483E0,1.0295474E1,9.798906E0,0E0,5.8983364E0,1.0814931E1,1.2026733E1,9.176158E0,1.0280857E1,9.122444E0,1.8052998E0,5.2660007E0,6.476858E0,6.6535897E0,0E0,0E0,1.3592648E1,2.794057E0,9.842651E0,9.566975E0,7.7478275E0,0E0,0E0,0E0,0E0,0E0,0E0,0E0,0E0,0E0,0E0,0E0,0E0,0E0,0E0,0E0,0E0,0E0,0E0,0E0],"parents":[2147483647,0,0,1,1,2,2,3,3,4,4,5,5,7,7,8,8,9,9,10,10,11,11,12,12,13,13,14,14,15,15,16,16,19,19,20,20,21,21,22,22,23,23],"right_children":[2,4,6,8,10,12,-1,14,16,18,20,22,24,26,28,30,32,-1,-1,34,36,38,40,42,-1,-1,-1,-1,-1,-1,-1,-1,-1,-1,-1,-1,-1,-1,-1,-1,-1,-1,-1],"split_conditions":[4.3E-1,4.7E1,2.2E-1,3E-1,9.4E1,2E1,-1.2593304E-1,9E-2,2.7E1,4.1E-1,7.5E-1,5.81526E3,9.6E-1,1.1E1,2.8412E3,7.1E-1,4.62E2,-1.3726793E-1,9.217823E-2,4.9E-1,1.48E2,5.82E2,3.5E-1,1.438231E4,7.7895604E-2,3.1135013E-2,-1.0687101E-1,-2.2829752E-2,1.0252049E-1,1.43739795E-2,7.932075E-2,-1.6169004E-1,8.637368E-3,3.2966703E-2,-1.2841867E-1,1.3346356E-1,3.3190453E-3,8.565654E-2,-1.0289013E-1,-1.288621E-1,7.5526647E-3,-1.2034835E-1,9.233281E-2],"split_indices":[10,9,13,12,9,6,0,12,6,10,12,7,10,6,7,12,5,0,0,12,9,5,12,7,0,0,0,0,0,0,0,0,0,0,0,0,0,0,0,0,0,0,0],"split_type":[0,0,0,0,0,0,0,0,0,0,0,0,0,0,0,0,0,0,0,0,0,0,0,0,0,0,0,0,0,0,0,0,0,0,0,0,0,0,0,0,0,0,0],"sum_hessian":[2.2647281E2,1.5715176E2,6.932105E1,1.1151383E2,4.563793E1,6.0426315E1,8.894733E0,3.9396866E1,7.211697E1,1.0559466E1,3.5078465E1,3.946029E1,2.0966026E1,2.3117597E0,3.7085106E1,6.413535E1,7.9816175E0,8.308181E0,2.2512848E0,2.6125973E1,8.952494E0,1.8589437E1,2.0870852E1,1.8457096E1,2.508931E0,1.0043873E0,1.3073723E0,3.3474529E0,3.373765E1,3.9338463E1,2.4796886E1,3.572272E0,4.409345E0,2.0199556E1,5.926415E0,6.7941437E0,2.15835E0,1.6163607E1,2.4258313E0,7.1118655E0,1.3758986E1,1.7292706E1,1.1643906E0],"tree_param":{"num_deleted":"0","num_feature":"15","num_nodes":"43","size_leaf_vector":"1"}},{"base_weights":[6.946584E-2,2.1429276E-1,-2.4234354E-1,1.1832304E-1,5.9822303E-1,3.1692788E-1,-4.6208423E-1,3.8065606E-1,-1.6641021E-1,9.5026475E-1,2.7476925E-1,-6.324132E-1,8.429181E-1,7.394323E-1,-6.4613557E-1,4.5792207E-1,-6.904284E-1,5.0837003E-2,-6.054633E-1,1.0203172E-1,1.1696074E0,5.240337E-1,-5.540777E-1,5.8136385E-2,-1.1999154E-1,1.1180584E0,-9.032248E-2,1.1628226E-1,-1.9613804E-1,-7.9043335E-1,5.3020674E-1,1.812706E-2,7.230957E-2,-1.2386936E-1,5.7205647E-2,7.2567485E-2,-1.3393613E-2,-1.3123485E-1,2.1683134E-3,-8.558103E-2,7.832778E-2,9.300175E-3,1.2877809E-1,-8.457731E-2,7.4631944E-2,1.7309623E-2,-1.3389482E-1,1.2808858E-2,1.569742E-1,4.216161E-2,-7.216816E-2,-8.596072E-2,5.8529533E-2,1.2610343E-1,-8.5557185E-2],"categories":[],"categories_nodes":[],"categories_segments":[],"categories_sizes":[],"default_left":[0,0,0,0,0,0,0,0,0,0,0,0,0,0,0,0,0,0,0,0,0,0,0,0,0,0,0,0,0,0,0,0,0,0,0,0,0,0,0,0,0,0,0,0,0,0,0,0,0,0,0,0,0,0,0],"id":13,"left_children":[1,3,5,7,9,11,13,15,17,19,21,23,25,27,29,31,33,35,37,39,41,43,45,-1,-1,47,-1,-1,49,51,53,-1,-1,-1,-1,-1,-1,-1,-1,-1,-1,-1,-1,-1,-1,-1,-1,-1,-1,-1,-1,-1,-1,-1,-1],"loss_changes":[9.648912E0,5.2956634E0,8.48751E0,8.859939E0,3.027398E0,1.0389192E1,1.1343193E1,5.413975E0,5.4836607E0,2.377862E0,3.6905506E0,5.938447E0,7.3178062E0,2.998065E0,7.7419224E0,4.127899E0,3.8534334E0,4.981009E0,8.452066E0,3.184668E0,1.2248507E0,4.640274E0,2.680895E0,0E0,0E0,5.0705624E0,0E0,0E0,1.2893975E0,4.1982E0,6.4589252E0,0E0,0E0,0E0,0E0,0E0,0E0,0E0,0E0,0E0,0E0,0E0,0E0,0E0,0E0,0E0,0E0,0E0,0E0,0E0,0E0,0E0,0E0,0E0,0E0],"parents":[2147483647,0,0,1,1,2,2,3,3,4,4,5,5,6,6,7,7,8,8,9,9,10,10,11,11,12,12,13,13,14,14,15,15,16,16,17,17,18,18,19,19,20,20,21,21,22,22,25,25,28,28,29,29,30,30],"right_children":[2,4,6,8,10,12,14,16,18,20,22,24,26,28,30,32,34,36,38,40,42,44,46,-1,-1,48,-1,-1,50,52,54,-1,-1,-1,-1,-1,-1,-1,-1,-1,-1,-1,-1,-1,-1,-1,-1,-1,-1,-1,-1,-1,-1,-1,-1],"split_conditions":[4.3E-1,7.6E-1,5E-2,3.7E-1,2.21E2,3.68E2,5.1E1,2.8E1,5E-2,8.3E1,3.3E-1,5.2E-1,8.7E-1,1.4E-1,9.6E-1,2.4E-1,1.4E1,2E0,3E0,2.4E1,9E0,4.23873E3,3E0,5.8136385E-2,-1.1999154E-1,2.5E-1,-9.032248E-2,1.1628226E-1,1.10606E3,3.7E-1,2.06E2,1.812706E-2,7.230957E-2,-1.2386936E-1,5.7205647E-2,7.2567485E-2,-1.3393613E-2,-1.3123485E-1,2.1683134E-3,-8.558103E-2,7.832778E-2,9.300175E-3,1.2877809E-1,-8.457731E-2,7.4631944E-2,1.7309623E-2,-1.3389482E-1,1.2808858E-2,1.569742E-1,4.216161E-2,-7.216816E-2,-8.596072E-2,5.8529533E-2,1.2610343E-1,-8.5557185E-2],"split_indices":[10,12,13,12,5,5,5,6,10,5,13,10,10,13,10,12,3,3,4,6,6,7,3,0,0,12,0,0,7,13,5,0,0,0,0,0,0,0,0,0,0,0,0,0,0,0,0,0,0,0,0,0,0,0,0],"split_type":[0,0,0,0,0,0,0,0,0,0,0,0,0,0,0,0,0,0,0,0,0,0,0,0,0,0,0,0,0,0,0,0,0,0,0,0,0,0,0,0,0,0,0,0,0,0,0,0,0,0,0,0,0,0,0],"sum_hessian":[2.1151819E2,1.4464658E2,6.687163E1,1.1676694E2,2.7879635E1,1.873813E1,4.8133495E1,6.05987E1,5.6168232E1,1.2421937E1,1.5457697E1,6.608448E0,1.2129683E1,5.99296E0,4.2140533E1,5.705531E1,3.543394E0,3.816706E1,1.8001173E1,2.8532264E0,9.568711E0,1.21665325E1,3.2911646E0,2.09762E0,4.510828E0,1.0789307E1,1.3403765E0,3.9586012E0,2.034359E0,3.7828323E1,4.312209E0,2.8747292E1,2.8308016E1,2.4836519E0,1.0597423E0,7.5747585E0,3.0592302E1,7.9489646E0,1.0052208E1,1.0793716E0,1.7738549E0,1.1231729E0,8.4455385E0,1.3070589E0,1.0859473E1,2.1129751E0,1.1781896E0,3.782549E0,7.0067573E0,1.0260421E0,1.0083168E0,3.637452E1,1.4538069E0,2.8822138E0,1.4299953E0],"tree_param":{"num_deleted":"0","num_feature":"15","num_nodes":"55","size_leaf_vector":"1"}},{"base_weights":[2.790025E-3,2.5027364E-1,-1.9059868E-1,-1.2604049E-1,4.1907996E-1,-4.7435528E-1,3.1001724E-2,-2.9084367E-1,6.623592E-1,5.7679766E-1,-1.402083E-1,-2.4314368E-1,-1.2640236E-1,2.0011838E-1,-9.4449276E-1,7.6495665E-1,-5.0521815E-1,-1.5177234E-2,9.241632E-2,-2.838387E-1,6.857334E-1,4.4640377E-1,-7.423858E-1,-6.8699795E-1,2.4657278E-1,2.917783E-2,8.709883E-1,-1.2870508E-1,1.0277569E-1,1.616815E-2,9.601104E-2,-1.5016608E-1,4.987788E-3,8.4385276E-2,-8.201735E-2,8.1737764E-2,5.491234E-3,-3.7342247E-2,7.126563E-2,-1.3378589E-1,1.4595277E-2,8.682835E-2,-1.0653507E-1,-5.1333576E-2,7.5894475E-2,4.9780067E-2,-5.3793218E-2,2.4201893E-3,1.1975842E-1],"categories":[],"categories_nodes":[],"categories_segments":[],"categories_sizes":[],"default_left":[0,0,0,0,0,0,0,0,0,0,0,0,0,0,0,0,0,0,0,0,0,0,0,0,0,0,0,0,0,0,0,0,0,0,0,0,0,0,0,0,0,0,0,0,0,0,0,0,0],"id":14,"left_children":[1,3,5,7,9,11,13,15,17,19,21,23,-1,25,27,29,31,-1,-1,33,35,37,39,41,43,45,47,-1,-1,-1,-1,-1,-1,-1,-1,-1,-1,-1,-1,-1,-1,-1,-1,-1,-1,-1,-1,-1,-1],"loss_changes":[9.889758E0,5.810431E0,7.3090944E0,3.9393263E0,5.6204824E0,8.991363E0,1.1089477E1,5.94197E0,1.2679367E0,4.805649E0,5.4953074E0,9.001474E0,0E0,6.527009E0,8.036557E0,3.7931585E-1,1.1693157E1,0E0,0E0,4.461989E0,3.604807E0,2.018794E0,4.2097354E0,1.3622861E1,8.197844E0,1.2644089E1,3.170164E0,0E0,0E0,0E0,0E0,0E0,0E0,0E0,0E0,0E0,0E0,0E0,0E0,0E0,0E0,0E0,0E0,0E0,0E0,0E0,0E0,0E0,0E0],"parents":[2147483647,0,0,1,1,2,2,3,3,4,4,5,5,6,6,7,7,8,8,9,9,10,10,11,11,13,13,14,14,15,15,16,16,19,19,20,20,21,21,22,22,23,23,24,24,25,25,26,26],"right_children":[2,4,6,8,10,12,14,16,18,20,22,24,-1,26,28,30,32,-1,-1,34,36,38,40,42,44,46,48,-1,-1,-1,-1,-1,-1,-1,-1,-1,-1,-1,-1,-1,-1,-1,-1,-1,-1,-1,-1,-1,-1],"split_conditions":[5E-2,5.78819E3,1.86E2,3.24E2,4E0,1.58E2,3.26E2,1.4E-1,2E0,1.66E2,3.06E2,1.03E2,-1.2640236E-1,1.8E2,3.65E2,1.86E2,1E-1,-1.5177234E-2,9.241632E-2,1.7E1,2.3E1,7.42691E3,1E0,2.3E1,4.4E-1,1.6E1,3.5E2,-1.2870508E-1,1.0277569E-1,1.616815E-2,9.601104E-2,-1.5016608E-1,4.987788E-3,8.4385276E-2,-8.201735E-2,8.1737764E-2,5.491234E-3,-3.7342247E-2,7.126563E-2,-1.3378589E-1,1.4595277E-2,8.682835E-2,-1.0653507E-1,-5.1333576E-2,7.5894475E-2,4.9780067E-2,-5.3793218E-2,2.4201893E-3,1.1975842E-1],"split_indices":[10,7,11,11,4,9,11,12,4,5,5,9,0,9,11,5,13,0,0,5,6,7,2,11,12,6,5,0,0,0,0,0,0,0,0,0,0,0,0,0,0,0,0,0,0,0,0,0,0],"split_type":[0,0,0,0,0,0,0,0,0,0,0,0,0,0,0,0,0,0,0,0,0,0,0,0,0,0,0,0,0,0,0,0,0,0,0,0,0,0,0,0,0,0,0,0,0,0,0,0,0],"sum_hessian":[2.0464034E2,8.963648E1,1.15003845E2,2.7835997E1,6.1800488E1,4.9929348E1,6.50745E1,2.35453E1,4.290697E0,4.8181995E1,1.3618494E1,3.9632904E1,1.0296444E1,5.6137135E1,8.937364E0,3.5404015E0,2.0004898E1,1.146308E0,3.1443892E0,5.2330666E0,4.2948925E1,7.0294394E0,6.5890546E0,2.0578627E1,1.9054277E1,4.556936E1,1.0567777E1,7.91077E0,1.0265937E0,1.3122747E0,2.2281268E0,6.5470977E0,1.3457801E1,1.5018739E0,3.7311928E0,3.528886E1,7.6600685E0,1.6245928E0,5.4048467E0,3.6418307E0,2.947224E0,3.773231E0,1.6805395E1,7.672768E0,1.1381509E1,2.5018177E1,2.0551182E1,3.240367E0,7.3274097E0],"tree_param":{"num_deleted":"0","num_feature":"15","num_nodes":"49","size_leaf_vector":"1"}},{"base_weights":[1.6343073E-3,2.3569697E-1,-1.5998699E-1,2.9324698E-1,-9.063655E-1,-3.8680497E-1,1.6029827E-1,1.5920286E-1,7.584198E-1,-1.3451049E-1,1.8196112E-2,-1.2488139E-1,-8.4940803E-1,2.7614942E-1,-1.093603E-1,2.3578219E-1,-1.5383951E-1,1.1718099E0,1.670481E-1,-7.5788206E-1,2.6693144E-1,-1.0219469E0,5.3697425E-1,1.2365924E-1,1.1189082E0,2.1024083E-3,5.592779E-2,4.2526808E-2,1.2520646E-1,-9.667208E-2,8.442476E-2,7.388602E-2,-8.977043E-2,6.364297E-2,-5.4769546E-2,-1.1569535E-1,6.522599E-2,6.581527E-2,2.0213863E-2,2.3808898E-2,-1.0408052E-1,-8.44064E-3,1.4450024E-1],"categories":[],"categories_nodes":[],"categories_segments":[],"categories_sizes":[],"default_left":[0,0,0,0,0,0,0,0,0,0,0,0,0,0,0,0,0,0,0,0,0,0,0,0,0,0,0,0,0,0,0,0,0,0,0,0,0,0,0,0,0,0,0],"id":15,"left_children":[1,3,5,7,9,11,13,15,17,-1,-1,19,21,23,-1,25,-1,27,29,31,33,35,37,39,41,-1,-1,-1,-1,-1,-1,-1,-1,-1,-1,-1,-1,-1,-1,-1,-1,-1,-1],"loss_changes":[7.787194E0,5.7919173E0,8.908472E0,4.9174747E0,2.2874796E0,8.5672865E0,7.738473E0,8.681656E0,4.1580467E0,0E0,0E0,1.1828586E1,6.697584E0,5.986643E0,0E0,4.3022814E0,0E0,8.558941E-2,7.3374033E0,4.4685135E0,9.286594E0,5.999565E0,8.996844E-3,5.7753286E0,2.9386692E0,0E0,0E0,0E0,0E0,0E0,0E0,0E0,0E0,0E0,0E0,0E0,0E0,0E0,0E0,0E0,0E0,0E0,0E0],"parents":[2147483647,0,0,1,1,2,2,3,3,4,4,5,5,6,6,7,7,8,8,11,11,12,12,13,13,15,15,17,17,18,18,19,19,20,20,21,21,22,22,23,23,24,24],"right_children":[2,4,6,8,10,12,14,16,18,-1,-1,20,22,24,-1,26,-1,28,30,32,34,36,38,40,42,-1,-1,-1,-1,-1,-1,-1,-1,-1,-1,-1,-1,-1,-1,-1,-1,-1,-1],"split_conditions":[7E0,1E1,7E0,1E0,1.1E2,8.31803E3,2.8E1,3.46E2,4.7E-1,-1.3451049E-1,1.8196112E-2,1.87E2,1.95E2,2.4E1,-1.093603E-1,5.6E-1,-1.5383951E-1,3E0,7.5E-1,6.5983E2,2.89E2,1.47433E4,9.94088E3,1.369728E4,2.30363E3,2.1024083E-3,5.592779E-2,4.2526808E-2,1.2520646E-1,-9.667208E-2,8.442476E-2,7.388602E-2,-8.977043E-2,6.364297E-2,-5.4769546E-2,-1.1569535E-1,6.522599E-2,6.581527E-2,2.0213863E-2,2.3808898E-2,-1.0408052E-1,-8.44064E-3,1.4450024E-1],"split_indices":[9,14,14,2,11,7,6,11,12,0,0,11,9,6,0,12,0,6,12,7,11,7,7,7,7,0,0,0,0,0,0,0,0,0,0,0,0,0,0,0,0,0,0],"split_type":[0,0,0,0,0,0,0,0,0,0,0,0,0,0,0,0,0,0,0,0,0,0,0,0,0,0,0,0,0,0,0,0,0,0,0,0,0,0,0,0,0,0,0],"sum_hessian":[2.0385292E2,8.307867E1,1.2077425E2,7.9800644E1,3.278027E0,7.058209E1,5.0192154E1,6.2991318E1,1.6809322E1,2.1680698E0,1.109957E0,4.587682E1,2.4705275E1,4.6660812E1,3.5313442E0,6.1096348E1,1.8949722E0,9.31576E0,7.493562E0,1.7182695E1,2.8694124E1,2.2204708E1,2.500566E0,4.048256E1,6.1782517E0,3.7359562E1,2.3736786E1,1.5156755E0,7.800084E0,2.6422963E0,4.8512664E0,1.1019942E0,1.60807E1,1.9890806E1,8.803318E0,2.0833656E1,1.3710525E0,1.1270738E0,1.3734924E0,3.7584717E1,2.897842E0,1.4753278E0,4.702924E0],"tree_param":{"num_deleted":"0","num_feature":"15","num_nodes":"43","size_leaf_vector":"1"}},{"base_weights":[2.3452317E-2,3.121341E-1,-2.1259634E-1,-1.0088312E-1,3.4246373E-1,7.07192E-1,-2.7851105E-1,5.703622E-1,1.910625E-1,-9.017082E-2,1.1792774E0,8.625308E-1,-3.4216407E-1,6.462668E-1,-5.003766E-2,3.2282162E-2,6.538566E-1,1.3403128E-1,3.2287486E-2,1.0535933E-1,2.4371302E-2,-2.295043E-1,-9.047357E-1,1.2512125E-1,4.5091756E-2,-1.5906097E-2,4.9763016E-2,1.7723449E-2,9.964665E-2,9.757034E-3,-4.2846028E-2,-1.2898932E-1,1.124775E-1],"categories":[],"categories_nodes":[],"categories_segments":[],"categories_sizes":[],"default_left":[0,0,0,0,0,0,0,0,0,0,0,0,0,0,0,0,0,0,0,0,0,0,0,0,0,0,0,0,0,0,0,0,0],"id":16,"left_children":[1,3,5,-1,7,9,11,13,15,-1,17,19,21,23,-1,25,27,-1,-1,-1,-1,29,31,-1,-1,-1,-1,-1,-1,-1,-1,-1,-1],"loss_changes":[1.3711322E1,3.9706278E0,6.9119225E0,0E0,2.9687376E0,6.903448E0,7.8537064E0,3.1761532E0,4.0276155E0,0E0,4.4684315E-1,4.2693663E-1,6.0850134E0,3.3608398E0,0E0,3.8255613E0,2.1132345E0,0E0,0E0,0E0,0E0,5.5118937E0,1.4134063E1,0E0,0E0,0E0,0E0,0E0,0E0,0E0,0E0,0E0,0E0],"parents":[2147483647,0,0,1,1,2,2,4,4,5,5,6,6,7,7,8,8,10,10,11,11,12,12,13,13,15,15,16,16,21,21,22,22],"right_children":[2,4,6,-1,8,10,12,14,16,-1,18,20,22,24,-1,26,28,-1,-1,-1,-1,30,32,-1,-1,-1,-1,-1,-1,-1,-1,-1,-1],"split_conditions":[8E0,9E-2,8.4632E2,-1.0088312E-1,3.7E-1,3.2E-1,1E-2,2.9E1,2.5E-1,-9.017082E-2,6.3E-1,1.05E2,1E0,2E-2,-5.003766E-2,1E0,7.6555E3,1.3403128E-1,3.2287486E-2,1.0535933E-1,2.4371302E-2,2.47E2,3E1,1.2512125E-1,4.5091756E-2,-1.5906097E-2,4.9763016E-2,1.7723449E-2,9.964665E-2,9.757034E-3,-4.2846028E-2,-1.2898932E-1,1.124775E-1],"split_indices":[9,12,7,0,12,12,13,6,13,0,10,9,1,13,0,1,7,0,0,0,0,5,6,0,0,0,0,0,0,0,0,0,0],"split_type":[0,0,0,0,0,0,0,0,0,0,0,0,0,0,0,0,0,0,0,0,0,0,0,0,0,0,0,0,0,0,0,0,0],"sum_hessian":[1.992403E2,8.948274E1,1.09757545E2,1.2843091E0,8.819844E1,6.688991E0,1.0306856E2,3.410072E1,5.4097717E1,1.3109906E0,5.3780007E0,4.782745E0,9.828581E1,3.221353E1,1.8871865E0,4.107502E1,1.30227E1,4.05118E0,1.3268209E0,3.1175866E0,1.665158E0,8.306024E1,1.5225569E1,6.5438714E0,2.566966E1,2.957321E1,1.1501809E1,6.0807567E0,6.9419436E0,3.1607887E1,5.1452354E1,1.3103279E1,2.122289E0],"tree_param":{"num_deleted":"0","num_feature":"15","num_nodes":"33","size_leaf_vector":"1"}},{"base_weights":[1.6319701E-2,1.7264971E-1,-4.9563915E-1,5.7554755E-2,5.890586E-1,7.797228E-1,-6.408337E-1,2.4983382E-1,-2.688163E-1,6.650969E-1,-7.7768266E-2,1.1518278E-1,4.7783293E-3,-1.244401E-1,-3.810283E-1,-4.6705088E-1,3.924854E-1,2.5295272E-1,-4.309245E-1,7.748624E-1,-3.0138844E-1,3.6134833E-1,-6.667284E-1,5.8078367E-2,-1.1157656E-1,5.5615433E-2,1.5332681E-3,6.3119486E-2,-9.357731E-2,-5.8670778E-2,5.5851407E-2,1.0186616E-1,2.4316352E-2,-9.2220075E-2,7.179785E-2,-8.926558E-2,8.127705E-2,1.1081087E-2,-9.495664E-2],"categories":[],"categories_nodes":[],"categories_segments":[],"categories_sizes":[],"default_left":[0,0,0,0,0,0,0,0,0,0,0,0,0,0,0,0,0,0,0,0,0,0,0,0,0,0,0,0,0,0,0,0,0,0,0,0,0,0,0],"id":17,"left_children":[1,3,5,7,9,11,13,15,17,19,-1,-1,-1,-1,21,23,25,27,29,31,33,35,37,-1,-1,-1,-1,-1,-1,-1,-1,-1,-1,-1,-1,-1,-1,-1,-1],"loss_changes":[1.6103455E1,7.349738E0,9.21692E0,7.7111654E0,3.973051E0,1.3783E0,6.2393417E0,8.074949E0,3.9693494E0,3.6325111E0,0E0,0E0,0E0,0E0,6.894618E0,9.664036E0,3.9979353E0,5.7382865E0,5.75196E0,3.518238E0,3.185643E0,6.027731E0,5.1643305E0,0E0,0E0,0E0,0E0,0E0,0E0,0E0,0E0,0E0,0E0,0E0,0E0,0E0,0E0,0E0,0E0],"parents":[2147483647,0,0,1,1,2,2,3,3,4,4,5,5,6,6,7,7,8,8,9,9,14,14,15,15,16,16,17,17,18,18,19,19,20,20,21,21,22,22],"right_children":[2,4,6,8,10,12,14,16,18,20,-1,-1,-1,-1,22,24,26,28,30,32,34,36,38,-1,-1,-1,-1,-1,-1,-1,-1,-1,-1,-1,-1,-1,-1,-1,-1],"split_conditions":[5.2E-1,7.6E-1,2.6E1,4.5E-1,4.5E-1,7.6E-1,3.9E-1,2.04E2,2E0,1.48E2,-7.7768266E-2,1.1518278E-1,4.7783293E-3,-1.244401E-1,4.8E-1,5E0,1.3E-1,3E0,1.71E2,3.76E2,1.87E2,7.2E-1,7E-2,5.8078367E-2,-1.1157656E-1,5.5615433E-2,1.5332681E-3,6.3119486E-2,-9.357731E-2,-5.8670778E-2,5.5851407E-2,1.0186616E-1,2.4316352E-2,-9.2220075E-2,7.179785E-2,-8.926558E-2,8.127705E-2,1.1081087E-2,-9.495664E-2],"split_indices":[10,12,5,12,10,10,12,5,14,9,0,0,0,0,12,6,10,9,9,5,9,10,13,0,0,0,0,0,0,0,0,0,0,0,0,0,0,0,0],"split_type":[0,0,0,0,0,0,0,0,0,0,0,0,0,0,0,0,0,0,0,0,0,0,0,0,0,0,0,0,0,0,0,0,0,0,0,0,0,0,0],"sum_hessian":[1.9913713E2,1.5306155E2,4.607559E1,1.2080845E2,3.22531E1,4.2626915E0,4.1812897E1,7.6168724E1,4.4639725E1,3.1039593E1,1.213509E0,2.4456842E0,1.8170075E0,1.1441895E1,3.0371E1,1.226381E1,6.390491E1,1.0448691E1,3.4191036E1,2.8051949E1,2.987644E0,8.3664465E0,2.2004555E1,4.729391E0,7.534419E0,4.4234383E1,1.967053E1,8.282339E0,2.1663518E0,2.9891727E1,4.299307E0,1.860511E1,9.44684E0,1.9160537E0,1.0715902E0,1.9558544E0,6.410592E0,6.031582E0,1.5972973E1],"tree_param":{"num_deleted":"0","num_feature":"15","num_nodes":"39","size_leaf_vector":"1"}},{"base_weights":[-8.544312E-3,-3.2297435E-1,1.7097817E-1,-1.11832395E-1,-9.32773E-1,3.0626824E-1,-1.3044928E-1,1.8860695E-1,-6.4261013E-1,6.298234E-2,-1.0670363E0,3.635097E-1,-8.864354E-1,3.2733086E-1,-6.5942544E-1,-6.546056E-1,3.579179E-1,-1.2342931E0,-2.1490039E-1,-1.2352603E-1,-1.6319773E-1,-4.774733E-2,4.5614517E-1,-1.3240139E-1,-1.2276315E-2,7.258244E-1,-8.3993584E-1,-1.2419035E-1,7.6634507E-3,8.57108E-2,-1.1187724E-1,5.1865596E-2,-4.7030516E-2,-5.426057E-3,-1.4458829E-1,7.630457E-2,-7.014444E-2,6.4829014E-2,-8.095206E-2,-5.072233E-2,4.5172665E-2,7.4693605E-2,2.6995182E-2,-6.1026895E-3,1.1146615E-1,2.3839159E-2,-1.120429E-1,9.531178E-2,-6.834172E-2],"categories":[],"categories_nodes":[],"categories_segments":[],"categories_sizes":[],"default_left":[0,0,0,0,0,0,0,0,0,0,0,0,0,0,0,0,0,0,0,0,0,0,0,0,0,0,0,0,0,0,0,0,0,0,0,0,0,0,0,0,0,0,0,0,0,0,0,0,0],"id":18,"left_children":[1,3,5,7,9,11,13,15,17,-1,19,21,23,25,27,29,31,33,35,-1,37,39,41,-1,-1,43,45,-1,47,-1,-1,-1,-1,-1,-1,-1,-1,-1,-1,-1,-1,-1,-1,-1,-1,-1,-1,-1,-1],"loss_changes":[1.1170532E1,9.154785E0,5.178326E0,8.820671E0,4.5238476E0,6.2801056E0,9.837926E0,5.317956E0,4.7822123E0,0E0,2.4254742E0,3.2211437E0,1.2701027E0,1.0828661E1,7.3012667E0,5.3850393E0,4.277768E0,1.958355E0,6.6196775E0,0E0,2.551102E0,3.980014E0,3.514515E0,0E0,0E0,5.2431316E0,2.0984774E0,0E0,7.016301E0,0E0,0E0,0E0,0E0,0E0,0E0,0E0,0E0,0E0,0E0,0E0,0E0,0E0,0E0,0E0,0E0,0E0,0E0,0E0,0E0],"parents":[2147483647,0,0,1,1,2,2,3,3,4,4,5,5,6,6,7,7,8,8,10,10,11,11,12,12,13,13,14,14,15,15,16,16,17,17,18,18,20,20,21,21,22,22,25,25,26,26,28,28],"right_children":[2,4,6,8,10,12,14,16,18,-1,20,22,24,26,28,30,32,34,36,-1,38,40,42,-1,-1,44,46,-1,48,-1,-1,-1,-1,-1,-1,-1,-1,-1,-1,-1,-1,-1,-1,-1,-1,-1,-1,-1,-1],"split_conditions":[1.6E2,1.15E2,4.3E-1,8.3E1,6.5983E2,8.7E-1,6.10857E3,2.22E2,1E-1,6.298234E-2,6E0,1.86E2,2.7E-1,2.81E2,7.4E-1,2E0,1.339361E4,1E-2,1.2E-1,-1.2352603E-1,7E0,5.7E-1,3E-1,-1.3240139E-1,-1.2276315E-2,3.40769E3,6.8E1,-1.2419035E-1,8.2E1,8.57108E-2,-1.1187724E-1,5.1865596E-2,-4.7030516E-2,-5.426057E-3,-1.4458829E-1,7.630457E-2,-7.014444E-2,6.4829014E-2,-8.095206E-2,-5.072233E-2,4.5172665E-2,7.4693605E-2,2.6995182E-2,-6.1026895E-3,1.1146615E-1,2.3839159E-2,-1.120429E-1,9.531178E-2,-6.834172E-2],"split_indices":[11,9,10,11,7,12,7,5,13,0,4,5,13,11,10,3,7,13,13,0,4,12,12,0,0,7,5,0,9,0,0,0,0,0,0,0,0,0,0,0,0,0,0,0,0,0,0,0,0],"split_type":[0,0,0,0,0,0,0,0,0,0,0,0,0,0,0,0,0,0,0,0,0,0,0,0,0,0,0,0,0,0,0,0,0,0,0,0,0,0,0,0,0,0,0,0,0,0,0,0,0],"sum_hessian":[1.9591493E2,7.0913055E1,1.2500188E2,5.3553593E1,1.7359468E1,8.6266655E1,3.8735226E1,3.460856E1,1.8945034E1,1.0815147E0,1.6277952E1,8.297944E1,3.287213E0,2.0969368E1,1.7765856E1,5.307841E0,2.9300716E1,7.157586E0,1.1787447E1,1.3414535E1,2.8634183E0,1.5344002E1,6.763544E1,1.623318E0,1.663895E0,1.5914497E1,5.054871E0,9.024399E0,8.741457E0,1.04803E0,4.259811E0,2.4851429E1,4.449288E0,1.2793146E0,5.8782716E0,3.727311E0,8.060136E0,1.268152E0,1.5952662E0,7.9839206E0,7.360081E0,2.5226254E1,4.2409184E1,5.5422473E0,1.0372251E1,1.0744301E0,3.9804409E0,3.53125E0,5.2102075E0],"tree_param":{"num_deleted":"0","num_feature":"15","num_nodes":"49","size_leaf_vector":"1"}},{"base_weights":[2.754731E-2,-2.1544807E-1,1.7003459E-1,5.813593E-1,-3.2926536E-1,2.0118389E-1,-9.519186E-1,1.1319277E0,-6.298062E-1,1.165291E-2,-6.837474E-1,4.5575577E-1,3.18904E-2,-1.3276507E-1,-9.0013975E-3,1.3172111E-1,1.11810295E-2,-9.703755E-2,1.004118E-2,-3.318131E-1,8.868837E-1,-1.2559246E0,-3.5274604E-1,-2.149755E-1,6.3830566E-1,-3.2557577E-1,3.6120927E-1,2.187107E-2,-7.810025E-2,1.3469678E-1,-2.6238352E-2,-2.176876E-2,-1.3502501E-1,-6.854671E-2,3.424516E-2,-1.481836E-1,3.7666555E-2,9.4719574E-2,3.6413506E-2,-7.5211264E-2,4.7278937E-2,4.6693094E-2,-9.8327786E-2],"categories":[],"categories_nodes":[],"categories_segments":[],"categories_sizes":[],"default_left":[0,0,0,0,0,0,0,0,0,0,0,0,0,0,0,0,0,0,0,0,0,0,0,0,0,0,0,0,0,0,0,0,0,0,0,0,0,0,0,0,0,0,0],"id":19,"left_children":[1,3,5,7,9,11,13,15,17,19,21,23,25,-1,-1,-1,-1,-1,-1,27,29,31,33,35,37,39,41,-1,-1,-1,-1,-1,-1,-1,-1,-1,-1,-1,-1,-1,-1,-1,-1],"loss_changes":[6.6369305E0,6.6217394E0,4.4106193E0,6.8635592E0,7.582841E0,5.083431E0,9.9311996E-1,1.118844E0,9.7408533E-1,1.0194837E1,5.3799314E0,5.9128113E0,8.607527E0,0E0,0E0,0E0,0E0,0E0,0E0,6.19983E0,5.4053316E0,7.7129936E-1,5.061735E0,8.682696E0,2.816558E0,1.2310919E1,5.8621516E0,0E0,0E0,0E0,0E0,0E0,0E0,0E0,0E0,0E0,0E0,0E0,0E0,0E0,0E0,0E0,0E0],"parents":[2147483647,0,0,1,1,2,2,3,3,4,4,5,5,6,6,7,7,8,8,9,9,10,10,11,11,12,12,19,19,20,20,21,21,22,22,23,23,24,24,25,25,26,26],"right_children":[2,4,6,8,10,12,14,16,18,20,22,24,26,-1,-1,-1,-1,-1,-1,28,30,32,34,36,38,40,42,-1,-1,-1,-1,-1,-1,-1,-1,-1,-1,-1,-1,-1,-1,-1,-1],"split_conditions":[1.55E2,1.70411E3,8.7E-1,8.5E1,7E0,1E-2,9E0,4.8E-1,1.36E2,5E0,3.26E2,2E0,6E0,-1.3276507E-1,-9.0013975E-3,1.3172111E-1,1.11810295E-2,-9.703755E-2,1.004118E-2,5.6E1,2.1E1,2E0,2.3E1,6.21529E3,6.0646E3,1.8E-1,2.2E-1,2.187107E-2,-7.810025E-2,1.3469678E-1,-2.6238352E-2,-2.176876E-2,-1.3502501E-1,-6.854671E-2,3.424516E-2,-1.481836E-1,3.7666555E-2,9.4719574E-2,3.6413506E-2,-7.5211264E-2,4.7278937E-2,4.6693094E-2,-9.8327786E-2],"split_indices":[11,7,12,11,3,10,3,12,11,3,5,4,14,0,0,0,0,0,0,11,6,6,6,7,7,13,13,0,0,0,0,0,0,0,0,0,0,0,0,0,0,0,0],"split_type":[0,0,0,0,0,0,0,0,0,0,0,0,0,0,0,0,0,0,0,0,0,0,0,0,0,0,0,0,0,0,0,0,0,0,0,0,0,0,0,0,0,0,0],"sum_hessian":[1.8962917E2,6.9904015E1,1.1972516E2,8.223743E0,6.1680267E1,1.1728948E2,2.4356763E0,5.6986766E0,2.5250666E0,3.1934668E1,2.9745602E1,4.6170044E1,7.111943E1,1.3199146E0,1.1157616E0,4.5762587E0,1.1224177E0,1.4976755E0,1.0273912E0,2.3380404E1,8.554265E0,9.877241E0,1.986836E1,9.839561E0,3.6330482E1,3.4107784E1,3.701165E1,1.0735786E1,1.2644616E1,5.985912E0,2.5683527E0,1.0981178E0,8.779123E0,1.3446751E1,6.4216094E0,2.6533706E0,7.1861906E0,1.5929262E1,2.0401222E1,2.226849E1,1.18392935E1,3.491859E1,2.0930614E0],"tree_param":{"num_deleted":"0","num_feature":"15","num_nodes":"43","size_leaf_vector":"1"}},{"base_weights":[5.3384878E-2,2.7980873E-1,-1.6379058E-1,3.5669738E-1,-3.747514E-1,3.830249E-3,-4.9910364E-1,3.880248E-1,-9.63121E-2,4.5486197E-1,-1.0802041E0,1.7247894E-1,-6.7747086E-1,-6.3893294E-1,8.890272E-2,4.0018886E-2,5.1435536E-1,-1.1010993E-1,9.569346E-2,1.6685871E-2,-1.4183274E-1,-1.7068177E-1,4.2076793E-1,2.1567103E-1,-1.233167E-1,5.028086E-1,-8.464555E-1,-1.976139E-2,9.074839E-2,6.9701456E-2,2.8097609E-2,6.627827E-2,-9.934267E-2,-7.581727E-2,1.9349707E-2,-1.1089454E-1,5.782647E-2,9.795569E-2,-9.350447E-2,-1.4509755E-2,1.1558689E-1,-1.0170096E-1,1.9452708E-2],"categories":[],"categories_nodes":[],"categories_segments":[],"categories_sizes":[],"default_left":[0,0,0,0,0,0,0,0,0,0,0,0,0,0,0,0,0,0,0,0,0,0,0,0,0,0,0,0,0,0,0,0,0,0,0,0,0,0,0,0,0,0,0],"id":20,"left_children":[1,3,5,7,9,11,13,15,-1,17,19,21,23,25,-1,27,29,31,-1,-1,-1,33,35,37,-1,39,41,-1,-1,-1,-1,-1,-1,-1,-1,-1,-1,-1,-1,-1,-1,-1,-1],"loss_changes":[9.683415E0,4.981364E0,5.6600666E0,3.9588165E0,6.7025223E0,7.942714E0,7.0819216E0,3.7344093E0,0E0,1.6884267E0,2.7800837E0,4.791424E0,7.0741305E0,7.7872267E0,0E0,5.0920134E0,2.4718323E0,3.0634499E0,0E0,0E0,0E0,5.274064E0,8.453844E0,6.2888308E0,0E0,2.4551244E0,4.9318466E0,0E0,0E0,0E0,0E0,0E0,0E0,0E0,0E0,0E0,0E0,0E0,0E0,0E0,0E0,0E0,0E0],"parents":[2147483647,0,0,1,1,2,2,3,3,4,4,5,5,6,6,7,7,9,9,10,10,11,11,12,12,13,13,15,15,16,16,17,17,21,21,22,22,23,23,25,25,26,26],"right_children":[2,4,6,8,10,12,14,16,-1,18,20,22,24,26,-1,28,30,32,-1,-1,-1,34,36,38,-1,40,42,-1,-1,-1,-1,-1,-1,-1,-1,-1,-1,-1,-1,-1,-1,-1,-1],"split_conditions":[2.6E1,9E0,5.6E-1,1.449893E4,3E-1,5.37E2,3E1,2.64E2,-9.63121E-2,7E-2,7E0,1.86E2,2.8E-1,2E-2,8.890272E-2,1.302258E4,4.8E-1,2E-2,9.569346E-2,1.6685871E-2,-1.4183274E-1,2.5E-1,3E-2,3.2E-1,-1.233167E-1,4.1E-1,1.81E2,-1.976139E-2,9.074839E-2,6.9701456E-2,2.8097609E-2,6.627827E-2,-9.934267E-2,-7.581727E-2,1.9349707E-2,-1.1089454E-1,5.782647E-2,9.795569E-2,-9.350447E-2,-1.4509755E-2,1.1558689E-1,-1.0170096E-1,1.9452708E-2],"split_indices":[9,14,10,7,12,5,6,5,0,13,6,11,12,13,0,7,12,13,0,0,0,10,13,10,0,12,9,0,0,0,0,0,0,0,0,0,0,0,0,0,0,0,0],"split_type":[0,0,0,0,0,0,0,0,0,0,0,0,0,0,0,0,0,0,0,0,0,0,0,0,0,0,0,0,0,0,0,0,0,0,0,0,0,0,0,0,0,0,0],"sum_hessian":[1.9499062E2,9.532148E1,9.9669136E1,8.570867E1,9.612809E0,6.71099E1,3.255923E1,8.441108E1,1.2975938E0,4.5808926E0,5.031916E0,5.4392475E1,1.2717428E1,3.006994E1,2.489291E0,2.2831991E1,6.1579086E1,2.5227659E0,2.058127E0,1.1813579E0,3.8505583E0,2.2965029E1,3.1427446E1,5.1124077E0,7.6050205E0,4.406035E0,2.5663906E1,1.85285E1,4.303491E0,3.342875E1,2.8150337E1,1.4786388E0,1.0441271E0,8.374106E0,1.4590922E1,2.3697543E0,2.9057692E1,3.1620607E0,1.9503467E0,2.6021957E0,1.8038391E0,2.2070856E1,3.59305E0],"tree_param":{"num_deleted":"0","num_feature":"15","num_nodes":"43","size_leaf_vector":"1"}},{"base_weights":[5.3972926E-2,2.307179E-1,-7.574536E-2,1.4861844E-1,6.163981E-1,-1.433036E-1,5.1807296E-1,2.3198943E-1,-6.715955E-1,8.860314E-1,-2.1520716E-1,1.13334835E-1,-3.1279746E-1,1.1583189E0,-1.7821985E-1,-2.002791E-1,3.0107036E-1,4.9443517E-2,-1.1385306E0,1.3619828E-2,1.0142756E0,-1.3714638E-1,8.366292E-2,-1.1078357E-1,2.3904353E-1,2.4741066E-1,-4.2274797E-1,2.5152339E-2,1.3687246E-1,8.906966E-2,-1.02135316E-1,2.199118E-2,-1.6316079E-1,-1.6031334E-2,4.6459984E-2,-1.720003E-1,-7.898685E-3,1.0835945E-1,3.4637738E-2,3.199712E-2,-8.538128E-2,-3.8755544E-2,1.0088771E-1,5.5666603E-2,-5.0331783E-2],"categories":[],"categories_nodes":[],"categories_segments":[],"categories_sizes":[],"default_left":[0,0,0,0,0,0,0,0,0,0,0,0,0,0,0,0,0,0,0,0,0,0,0,0,0,0,0,0,0,0,0,0,0,0,0,0,0,0,0,0,0,0,0,0,0],"id":21,"left_children":[1,3,5,7,9,11,13,15,17,19,21,23,25,27,29,31,33,-1,35,-1,37,-1,-1,-1,39,41,43,-1,-1,-1,-1,-1,-1,-1,-1,-1,-1,-1,-1,-1,-1,-1,-1,-1,-1],"loss_changes":[4.526523E0,2.552106E0,4.6547127E0,4.9532437E0,3.4052062E0,4.528743E0,5.5023494E0,1.9841738E0,4.227074E0,9.2168236E-1,6.3948746E0,6.6847553E0,3.9528627E0,8.6198425E-1,6.819481E0,6.05909E0,4.295803E0,0E0,3.011335E0,0E0,5.322361E-2,0E0,0E0,0E0,3.699427E0,5.6520967E0,4.4305677E0,0E0,0E0,0E0,0E0,0E0,0E0,0E0,0E0,0E0,0E0,0E0,0E0,0E0,0E0,0E0,0E0,0E0,0E0],"parents":[2147483647,0,0,1,1,2,2,3,3,4,4,5,5,6,6,7,7,8,8,9,9,10,10,11,11,12,12,13,13,14,14,15,15,16,16,18,18,20,20,24,24,25,25,26,26],"right_children":[2,4,6,8,10,12,14,16,18,20,22,24,26,28,30,32,34,-1,36,-1,38,-1,-1,-1,40,42,44,-1,-1,-1,-1,-1,-1,-1,-1,-1,-1,-1,-1,-1,-1,-1,-1,-1,-1],"split_conditions":[3E0,3.21E2,9.2E-1,2.87E2,3.48E2,6E-2,1E0,5E0,4E0,8E-2,1E0,1.2E-1,1.2E-1,8.5E1,6E0,1.3E-1,2.72E2,4.9443517E-2,4.32E2,1.3619828E-2,1.31258E4,-1.3714638E-1,8.366292E-2,-1.1078357E-1,8.5E-1,2.3E1,8.4632E2,2.5152339E-2,1.3687246E-1,8.906966E-2,-1.02135316E-1,2.199118E-2,-1.6316079E-1,-1.6031334E-2,4.6459984E-2,-1.720003E-1,-7.898685E-3,1.0835945E-1,3.4637738E-2,3.199712E-2,-8.538128E-2,-3.8755544E-2,1.0088771E-1,5.5666603E-2,-5.0331783E-2],"split_indices":[9,11,10,11,11,13,0,6,6,13,2,10,10,11,6,13,5,0,5,0,7,0,0,0,10,6,7,0,0,0,0,0,0,0,0,0,0,0,0,0,0,0,0,0,0],"split_type":[0,0,0,0,0,0,0,0,0,0,0,0,0,0,0,0,0,0,0,0,0,0,0,0,0,0,0,0,0,0,0,0,0,0,0,0,0,0,0,0,0,0,0,0,0],"sum_hessian":[1.9566928E2,8.2492386E1,1.131769E2,6.915644E1,1.333594E1,1.02297295E2,1.0879609E1,6.3426582E1,5.7298613E0,1.0021273E1,3.3146675E0,4.0820473E1,6.147682E1,5.3222303E0,5.557379E0,8.477859E0,5.4948723E1,1.6215731E0,4.108288E0,1.7647793E0,8.256494E0,1.4342061E0,1.8804613E0,3.080723E0,3.773975E1,9.881165E0,5.1595657E1,1.41582E0,3.9064105E0,2.425694E0,3.1316845E0,7.2081437E0,1.269715E0,1.4384321E1,4.0564404E1,2.2501009E0,1.8581871E0,6.9162817E0,1.3402116E0,3.5796204E1,1.9435463E0,5.6559024E0,4.225262E0,3.4726546E0,4.8123E1],"tree_param":{"num_deleted":"0","num_feature":"15","num_nodes":"45","size_leaf_vector":"1"}},{"base_weights":[8.3342E-2,-9.275361E-3,4.6104598E-1,1.3198213E-1,-2.7427915E-1,9.365726E-1,2.4371181E-1,1.9026654E-2,6.8832767E-1,-9.10038E-1,-9.0780735E-2,1.1079558E0,-1.2834758E-2,-1.7883174E-1,7.2579366E-1,1.0952133E-1,-4.9525287E-2,-8.807121E-4,1.065889E0,3.4433592E-2,-1.1791242E0,2.942235E-2,-1.2627126E-1,6.2235654E-3,1.3062735E-1,-1.097728E-1,8.8619605E-2,1.0630249E0,-2.556163E-1,-6.3700914E-2,9.138587E-3,8.850818E-2,-8.159041E-2,1.240299E-1,-1.2777767E-2,-7.7627557E-3,-1.2987982E-1,2.177803E-2,-6.1925996E-2,-7.0903435E-2,4.0116977E-2,1.1758729E-1,7.247466E-3,2.9497689E-2,-9.536163E-2],"categories":[],"categories_nodes":[],"categories_segments":[],"categories_sizes":[],"default_left":[0,0,0,0,0,0,0,0,0,0,0,0,0,0,0,0,0,0,0,0,0,0,0,0,0,0,0,0,0,0,0,0,0,0,0,0,0,0,0,0,0,0,0,0,0],"id":22,"left_children":[1,3,5,7,9,11,13,15,17,19,21,23,-1,25,27,-1,29,31,33,-1,35,37,-1,-1,-1,-1,39,41,43,-1,-1,-1,-1,-1,-1,-1,-1,-1,-1,-1,-1,-1,-1,-1,-1],"loss_changes":[6.6879835E0,5.8166246E0,3.6622124E0,6.359199E0,6.218928E0,2.233101E0,5.667983E0,6.3484535E0,4.4466963E0,4.452301E0,6.098526E0,1.9867525E0,0E0,3.855184E0,4.540125E0,0E0,6.7772408E0,5.8098893E0,2.4566135E0,0E0,1.230092E0,5.0225654E0,0E0,0E0,0E0,0E0,3.467853E0,1.0094023E0,1.8586863E0,0E0,0E0,0E0,0E0,0E0,0E0,0E0,0E0,0E0,0E0,0E0,0E0,0E0,0E0,0E0,0E0],"parents":[2147483647,0,0,1,1,2,2,3,3,4,4,5,5,6,6,7,7,8,8,9,9,10,10,11,11,13,13,14,14,16,16,17,17,18,18,20,20,21,21,26,26,27,27,28,28],"right_children":[2,4,6,8,10,12,14,16,18,20,22,24,-1,26,28,-1,30,32,34,-1,36,38,-1,-1,-1,-1,40,42,44,-1,-1,-1,-1,-1,-1,-1,-1,-1,-1,-1,-1,-1,-1,-1,-1],"split_conditions":[7.6E-1,4.8E-1,1E-1,2.4E1,5.5E-1,1.8E1,2.2E1,2E1,5E0,2E0,5E0,4E0,-1.2834758E-2,1.73E2,2.9E1,1.0952133E-1,1.86E2,9E0,3.8E1,3.4433592E-2,2E0,1.04E2,-1.2627126E-1,6.2235654E-3,1.3062735E-1,-1.097728E-1,2E-1,1.33E2,5E0,-6.3700914E-2,9.138587E-3,8.850818E-2,-8.159041E-2,1.240299E-1,-1.2777767E-2,-7.7627557E-3,-1.2987982E-1,2.177803E-2,-6.1925996E-2,-7.0903435E-2,4.0116977E-2,1.1758729E-1,7.247466E-3,2.9497689E-2,-9.536163E-2],"split_indices":[12,12,13,3,12,6,6,5,4,14,4,3,0,5,6,0,5,6,3,0,6,9,0,0,0,0,13,9,14,0,0,0,0,0,0,0,0,0,0,0,0,0,0,0,0],"split_type":[0,0,0,0,0,0,0,0,0,0,0,0,0,0,0,0,0,0,0,0,0,0,0,0,0,0,0,0,0,0,0,0,0,0,0,0,0,0,0,0,0,0,0,0,0],"sum_hessian":[1.9006163E2,1.5341737E2,3.6644264E1,1.0040141E2,5.3015957E1,1.0456374E1,2.6187887E1,8.4316696E1,1.6084715E1,1.0987763E1,4.2028194E1,8.972044E0,1.4843303E0,1.4290949E1,1.1896939E1,4.1523995E0,8.01643E1,6.0459595E0,1.0038756E1,1.8913567E0,9.096407E0,3.900265E1,3.0255425E0,1.6397159E0,7.3323283E0,2.521906E0,1.1769043E1,8.792505E0,3.1044338E0,1.4827045E1,6.533725E1,2.8557198E0,3.1902394E0,8.724874E0,1.3138827E0,1.0530094E0,8.043397E0,3.0740734E1,8.261917E0,2.956152E0,8.812891E0,7.7253118E0,1.0671941E0,2.0582507E0,1.046183E0],"tree_param":{"num_deleted":"0","num_feature":"15","num_nodes":"45","size_leaf_vector":"1"}},{"base_weights":[4.0533748E-2,-1.30891E-1,1.8382734E-1,4.8714988E-2,-8.612455E-1,6.8542254E-1,7.98176E-2,3.1880245E-1,-2.696018E-1,8.689245E-2,-1.0744903E0,-3.1873116E-1,9.694072E-1,5.0066984E-3,9.549615E-1,4.371684E-1,-1.1034085E-1,-6.56723E-1,4.5917904E-1,2.7504114E-2,-1.18563175E-1,-1.00296155E-1,3.6199802E-1,-3.3038255E-2,1.153388E0,8.141741E-1,-6.5696485E-2,1.1840778E-1,3.4667432E-1,2.2821892E-2,1.10742345E-1,-2.6658589E-2,-1.1584171E-1,-9.3188845E-2,7.343175E-2,4.9056318E-2,6.058098E-3,1.2268511E-1,3.7988972E-2,4.216433E-5,1.0183497E-1,-1.8167496E-2,4.6759043E-2,8.457666E-3,4.604423E-2],"categories":[],"categories_nodes":[],"categories_segments":[],"categories_sizes":[],"default_left":[0,0,0,0,0,0,0,0,0,0,0,0,0,0,0,0,0,0,0,0,0,0,0,0,0,0,0,0,0,0,0,0,0,0,0,0,0,0,0,0,0,0,0,0,0],"id":23,"left_children":[1,3,5,7,9,11,13,15,17,-1,19,21,23,25,27,29,-1,31,33,-1,-1,-1,35,-1,37,39,41,-1,43,-1,-1,-1,-1,-1,-1,-1,-1,-1,-1,-1,-1,-1,-1,-1,-1],"loss_changes":[4.7269053E0,1.1553138E1,5.4074926E0,6.2226877E0,7.3438463E0,5.399066E0,5.7467074E0,7.0600305E0,9.698121E0,0E0,2.713152E0,2.5464976E0,3.7676926E0,4.7410946E0,5.5296564E-1,4.8993287E0,0E0,4.0292006E0,5.3318205E0,0E0,0E0,0E0,8.9817286E-2,0E0,2.5153542E-1,1.105907E0,4.802672E0,0E0,5.961907E-2,0E0,0E0,0E0,0E0,0E0,0E0,0E0,0E0,0E0,0E0,0E0,0E0,0E0,0E0,0E0,0E0],"parents":[2147483647,0,0,1,1,2,2,3,3,4,4,5,5,6,6,7,7,8,8,10,10,11,11,12,12,13,13,14,14,15,15,17,17,18,18,22,22,24,24,25,25,26,26,28,28],"right_children":[2,4,6,8,10,12,14,16,18,-1,20,22,24,26,28,30,-1,32,34,-1,-1,-1,36,-1,38,40,42,-1,44,-1,-1,-1,-1,-1,-1,-1,-1,-1,-1,-1,-1,-1,-1,-1,-1],"split_conditions":[1.87E2,1.19E2,1.4E-1,8.3E1,6.1351E2,9E-2,1.87E2,2.3E-1,7.4E-1,8.689245E-2,2.2E1,3E-2,2.8412E3,2.6E1,5E0,8.3E1,-1.1034085E-1,6E0,1.19E2,2.7504114E-2,-1.18563175E-1,-1.00296155E-1,2.26E2,-3.3038255E-2,5.97E2,3.26368E3,6.35E2,1.1840778E-1,4E0,2.2821892E-2,1.10742345E-1,-2.6658589E-2,-1.1584171E-1,-9.3188845E-2,7.343175E-2,4.9056318E-2,6.058098E-3,1.2268511E-1,3.7988972E-2,4.216433E-5,1.0183497E-1,-1.8167496E-2,4.6759043E-2,8.457666E-3,4.604423E-2],"split_indices":[11,9,12,11,7,12,9,13,12,0,5,13,7,5,3,9,0,9,11,0,0,0,11,0,5,7,5,0,4,0,0,0,0,0,0,0,0,0,0,0,0,0,0,0,0],"split_type":[0,0,0,0,0,0,0,0,0,0,0,0,0,0,0,0,0,0,0,0,0,0,0,0,0,0,0,0,0,0,0,0,0,0,0,0,0,0,0,0,0,0,0,0,0],"sum_hessian":[1.9045216E2,8.675369E1,1.0369848E2,7.0379524E1,1.6374165E1,1.684966E1,8.6848816E1,3.8073315E1,3.2306213E1,1.4593004E0,1.4914865E1,3.687724E0,1.3161937E1,8.093581E1,5.9130054E0,3.5787457E1,2.2858593E0,2.1163332E1,1.114288E1,1.0226526E0,1.3892212E1,1.6030577E0,2.0846663E0,1.5333515E0,1.1628586E1,5.6587276E0,7.5277084E1,3.6075978E0,2.3054078E0,2.8304216E1,7.4832377E0,1.2766764E1,8.396568E0,1.4458504E0,9.69703E0,1.0214559E0,1.0632104E0,1.0084684E1,1.5439011E0,1.3360188E0,4.322709E0,6.237187E1,1.2905214E1,1.2255079E0,1.0798999E0],"tree_param":{"num_deleted":"0","num_feature":"15","num_nodes":"45","size_leaf_vector":"1"}},{"base_weights":[5.91883E-2,-1.0669859E-1,1.9098406E-1,-1.0126645E-2,-1.1566911E0,1.3615125E-1,8.1955683E-1,-1.3532704E-1,7.216148E-1,2.0625396E-2,-1.4378993E-1,2.043539E-1,-4.4593933E-1,1.0288367E0,1.7915014E-3,4.498235E-1,-3.0163747E-1,7.07573E-2,1.0674957E0,4.409217E-1,-6.265081E-2,-1.1729832E-1,3.36346E-1,1.6728422E-2,1.17361024E-1,7.2003454E-2,-4.6130847E-2,-5.752773E-4,-7.399321E-2,-9.86776E-2,6.7803845E-2,1.20708995E-1,1.2865621E-2,-3.762097E-2,6.217162E-2,-1.2527265E-1,8.85824E-3,-7.937675E-2,1.0042708E-1],"categories":[],"categories_nodes":[],"categories_segments":[],"categories_sizes":[],"default_left":[0,0,0,0,0,0,0,0,0,0,0,0,0,0,0,0,0,0,0,0,0,0,0,0,0,0,0,0,0,0,0,0,0,0,0,0,0,0,0],"id":24,"left_children":[1,3,5,7,9,11,13,15,17,-1,-1,19,21,23,-1,25,27,29,31,33,35,-1,37,-1,-1,-1,-1,-1,-1,-1,-1,-1,-1,-1,-1,-1,-1,-1,-1],"loss_changes":[4.0446053E0,8.316652E0,3.4360487E0,7.0809436E0,2.9446268E0,3.8972123E0,1.333664E0,6.5518084E0,2.46707E0,0E0,0E0,5.491476E0,6.2920485E0,5.9860086E-1,0E0,4.023369E0,6.731245E0,3.873953E0,8.0195904E-1,7.028041E0,7.5823E0,0E0,5.154027E0,0E0,0E0,0E0,0E0,0E0,0E0,0E0,0E0,0E0,0E0,0E0,0E0,0E0,0E0,0E0,0E0],"parents":[2147483647,0,0,1,1,2,2,3,3,4,4,5,5,6,6,7,7,8,8,11,11,12,12,13,13,15,15,16,16,17,17,18,18,19,19,20,20,22,22],"right_children":[2,4,6,8,10,12,14,16,18,-1,-1,20,22,24,-1,26,28,30,32,34,36,-1,38,-1,-1,-1,-1,-1,-1,-1,-1,-1,-1,-1,-1,-1,-1,-1,-1],"split_conditions":[1.83E2,3E1,1.88E2,1.6E1,1.1E1,1.57E2,9.94088E3,2.3E1,4.61056E3,2.0625396E-2,-1.4378993E-1,1.6E1,5.04E2,1.56E2,1.7915014E-3,6.3E-1,7E0,1.5E1,1.4E2,4E0,2.23888E3,-1.1729832E-1,1.75E2,1.6728422E-2,1.17361024E-1,7.2003454E-2,-4.6130847E-2,-5.752773E-4,-7.399321E-2,-9.86776E-2,6.7803845E-2,1.20708995E-1,1.2865621E-2,-3.762097E-2,6.217162E-2,-1.2527265E-1,8.85824E-3,-7.937675E-2,1.0042708E-1],"split_indices":[11,3,9,3,11,9,7,11,7,0,0,6,5,5,0,12,3,6,11,3,7,0,9,0,0,0,0,0,0,0,0,0,0,0,0,0,0,0,0],"split_type":[0,0,0,0,0,0,0,0,0,0,0,0,0,0,0,0,0,0,0,0,0,0,0,0,0,0,0,0,0,0,0,0,0,0,0,0,0,0,0],"sum_hessian":[1.830641E2,8.113395E1,1.0193015E2,7.522486E1,5.9090824E0,9.487081E1,7.059339E0,6.493039E1,1.0294477E1,1.05625E0,4.8528323E0,8.550165E1,9.3691635E0,5.3731823E0,1.686157E0,1.3992859E1,5.0937527E1,3.9903164E0,6.3041615E0,4.49894E1,4.0512245E1,4.5971823E0,4.7719812E0,1.0831007E0,4.2900815E0,1.0954006E1,3.0388527E0,3.1013802E1,1.9923725E1,1.2276136E0,2.7627027E0,5.2393994E0,1.0647618E0,7.954921E0,3.703448E1,3.7465668E0,3.676568E1,1.7026789E0,3.0693023E0],"tree_param":{"num_deleted":"0","num_feature":"15","num_nodes":"39","size_leaf_vector":"1"}},{"base_weights":[4.023013E-2,-1.4332937E-1,1.8840572E-1,-9.503291E-1,-1.614027E-2,7.5667435E-1,1.2239028E-1,1.5661899E-2,-1.104622E0,-1.6931435E-1,4.4565982E-1,1.0558023E0,-2.4473406E-1,-1.0642596E-1,1.80487E-1,-5.59916E-1,-1.308289E-1,-9.275607E-1,1.0211048E-2,6.2385774E-1,-7.7705435E-2,2.1567287E-2,1.1585667E-1,4.9205583E-2,-7.991176E-2,5.4644656E-1,5.358891E-2,-1.04541734E-1,3.183978E-2,-1.1932693E-1,7.8845225E-2,2.4832042E-2,-7.138802E-2,7.994182E-2,-4.943294E-2,7.1733944E-2,-7.24753E-2,-4.6471532E-2,2.5459936E-2],"categories":[],"categories_nodes":[],"categories_segments":[],"categories_sizes":[],"default_left":[0,0,0,0,0,0,0,0,0,0,0,0,0,0,0,0,0,0,0,0,0,0,0,0,0,0,0,0,0,0,0,0,0,0,0,0,0,0,0],"id":25,"left_children":[1,3,5,7,9,11,13,-1,15,17,19,21,23,-1,25,27,-1,29,31,33,-1,-1,-1,-1,-1,35,37,-1,-1,-1,-1,-1,-1,-1,-1,-1,-1,-1,-1],"loss_changes":[5.0550513E0,8.518242E0,3.760941E0,2.103342E0,5.227676E0,3.403109E0,6.618954E0,0E0,3.8169765E-1,7.553525E0,4.497617E0,4.642725E-1,1.7110944E0,0E0,4.1376176E0,2.2438807E0,0E0,5.783328E0,8.073749E0,3.6596484E0,0E0,0E0,0E0,0E0,0E0,5.515031E0,7.1751156E0,0E0,0E0,0E0,0E0,0E0,0E0,0E0,0E0,0E0,0E0,0E0,0E0],"parents":[2147483647,0,0,1,1,2,2,3,3,4,4,5,5,6,6,8,8,9,9,10,10,11,11,12,12,14,14,15,15,17,17,18,18,19,19,25,25,26,26],"right_children":[2,4,6,8,10,12,14,-1,16,18,20,22,24,-1,26,28,-1,30,32,34,-1,-1,-1,-1,-1,36,38,-1,-1,-1,-1,-1,-1,-1,-1,-1,-1,-1,-1],"split_conditions":[1.87E2,2.1E-1,5.8E1,6E0,7.8E-1,2.1E1,1.03E2,1.5661899E-2,1E1,2.22E2,4.2E-1,1E-1,1E0,-1.0642596E-1,2.35E2,7E0,-1.308289E-1,9.6E-1,1.08E2,2.8E1,-7.7705435E-2,2.1567287E-2,1.1585667E-1,4.9205583E-2,-7.991176E-2,1E0,4.15E2,-1.04541734E-1,3.183978E-2,-1.1932693E-1,7.8845225E-2,2.4832042E-2,-7.138802E-2,7.994182E-2,-4.943294E-2,7.1733944E-2,-7.24753E-2,-4.6471532E-2,2.5459936E-2],"split_indices":[11,12,5,11,12,6,5,0,6,5,10,12,9,0,5,6,0,10,11,3,0,0,0,0,0,1,5,0,0,0,0,0,0,0,0,0,0,0,0],"split_type":[0,0,0,0,0,0,0,0,0,0,0,0,0,0,0,0,0,0,0,0,0,0,0,0,0,0,0,0,0,0,0,0,0,0,0,0,0,0,0],"sum_hessian":[1.8386124E2,8.213962E1,1.0172162E2,1.0302117E1,7.18375E1,9.49817E0,9.222345E1,1.258457E0,9.04366E0,5.4420254E1,1.741725E1,7.2717333E0,2.2264366E0,3.4960675E0,8.872738E1,3.4815233E0,5.5621376E0,9.620446E0,4.479981E1,1.5629228E1,1.7880218E0,1.1302571E0,6.141476E0,1.0042241E0,1.2222124E0,2.199375E1,6.6733635E1,2.1196175E0,1.3619057E0,8.594322E0,1.0261239E0,3.420796E1,1.0591848E1,1.3754747E1,1.8744804E0,1.9771482E1,2.222267E0,1.828192E1,4.8451714E1],"tree_param":{"num_deleted":"0","num_feature":"15","num_nodes":"39","size_leaf_vector":"1"}},{"base_weights":[2.145352E-2,-1.1758464E-1,5.468541E-2,3.272424E-1,-4.375678E-2,4.000782E-1,-7.6189816E-2,-4.0141663E-1,9.657974E-2,4.5415586E-1,-7.9409465E-2,-5.879186E-1,1.9739908E-1,3.2610744E-1,-5.6705263E-2,1.6427757E-2,7.5868115E-2,-3.050828E-2,-1.23231076E-1,-4.6988536E-2,8.2562916E-2,1.3130332E-2,1.1954435E-1,-9.758987E-2,3.5856625E-3],"categories":[],"categories_nodes":[],"categories_segments":[],"categories_sizes":[],"default_left":[0,0,0,0,0,0,0,0,0,0,0,0,0,0,0,0,0,0,0,0,0,0,0,0,0],"id":26,"left_children":[1,-1,3,5,7,9,-1,11,13,15,-1,17,19,21,23,-1,-1,-1,-1,-1,-1,-1,-1,-1,-1],"loss_changes":[7.1087956E0,0E0,4.6620703E0,3.960384E0,6.4705224E0,3.192299E0,0E0,4.170541E0,3.2847805E0,3.6345758E0,0E0,4.715211E0,4.3161097E0,6.163457E0,4.843428E0,0E0,0E0,0E0,0E0,0E0,0E0,0E0,0E0,0E0,0E0],"parents":[2147483647,0,0,2,2,3,3,4,4,5,5,7,7,8,8,9,9,11,11,12,12,13,13,14,14],"right_children":[2,-1,4,6,8,10,-1,12,14,16,-1,18,20,22,24,-1,-1,-1,-1,-1,-1,-1,-1,-1,-1],"split_conditions":[9E-2,-1.1758464E-1,5E-2,6E0,1E-1,8.7E-1,-7.6189816E-2,4E0,4.9E-1,6E0,-7.9409465E-2,1.1E1,9.21746E3,2E-1,5.5E-1,1.6427757E-2,7.5868115E-2,-3.050828E-2,-1.23231076E-1,-4.6988536E-2,8.2562916E-2,1.3130332E-2,1.1954435E-1,-9.758987E-2,3.5856625E-3],"split_indices":[12,0,13,4,13,10,0,4,12,14,0,3,7,13,12,0,0,0,0,0,0,0,0,0,0],"split_type":[0,0,0,0,0,0,0,0,0,0,0,0,0,0,0,0,0,0,0,0,0,0,0,0,0],"sum_hessian":[1.7604834E2,3.8258297E0,1.7222252E2,4.5081398E1,1.2714111E2,4.2848583E1,2.2328146E0,3.5304398E1,9.1836716E1,4.1585106E1,1.263475E0,2.6933971E1,8.370425E0,3.6321598E1,5.551512E1,2.2093607E1,1.94915E1,1.9742195E1,7.191777E0,4.181271E0,4.1891537E0,3.0612803E1,5.7087946E0,4.2058067E0,5.1309315E1],"tree_param":{"num_deleted":"0","num_feature":"15","num_nodes":"25","size_leaf_vector":"1"}}]},"name":"gbtree"},"learner_model_param":{"base_score":"5E-1","boost_from_average":"1","num_class":"0","num_feature":"15","num_target":"1"},"objective":{"name":"binary:logistic","reg_loss_param":{"scale_pos_weight":"3.67836261"}}},"version":[2,1,4]}